svm_type c_svc
kernel_type rbf
gamma 0.04
nr_class 18
total_sv 1756
rho -0.000337744 0.00269149 0.159216 0.0975402 0.126769 0.150364 -0.234204 0.164142 -0.198483 -0.170951 0.249102 -0.0365568 0.00455512 0.00823069 0.18107 0.0154108 -0.0935664 0.0242605 0.157448 0.0487313 0.141617 0.161487 -0.21102 0.177162 -0.175069 -0.155333 0.25903 -0.0133063 0.0263143 0.0308536 0.210465 0.055178 -0.132124 0.131634 0.0712018 0.118215 0.133599 -0.231042 0.154253 -0.201365 -0.171423 0.244857 -0.0381482 0.00261347 0.00554989 0.160665 0.00091287 -0.0934786 -0.173129 -0.00972347 0.00624653 -0.360831 0.0273624 -0.315586 -0.295965 0.112574 -0.173899 -0.125438 -0.123086 0.0491302 -0.110506 -0.233811 0.0488683 0.0654274 -0.301854 0.0853603 -0.262047 -0.239759 0.164839 -0.11339 -0.0695442 -0.0647656 0.111454 -0.0640606 -0.175815 0.00797859 -0.33986 0.0385258 -0.30446 -0.283861 0.125705 -0.162712 -0.130827 -0.112744 0.0567826 -0.0874763 -0.216229 -0.357502 0.0198513 -0.321569 -0.304106 0.106849 -0.181318 -0.136538 -0.128798 0.0369301 -0.119546 -0.243897 0.380585 0.0383683 0.0610051 0.453086 0.131843 0.236255 0.257126 0.415674 0.255728 0.1451 -0.337828 -0.317435 0.0826248 -0.224965 -0.174434 -0.148753 0.0186212 -0.123901 -0.250605 0.0230497 0.41662 0.157806 0.196003 0.199152 0.347835 0.222776 0.107606 0.390883 0.135735 0.173995 0.177535 0.352947 0.203322 0.0851855 -0.301262 -0.247655 -0.230335 -0.0778843 -0.187544 -0.335254 0.063486 0.0450143 0.229657 0.0711732 -0.0551941 0.00282351 0.172583 0.0300077 -0.09658 0.178595 0.0255397 -0.101307 -0.174484 -0.271168 -0.142151
label 48 50 52 54 56 66 68 70 72 74 76 78 80 82 84 86 88 90
nr_sv 120 105 67 127 130 94 86 73 90 51 43 132 100 121 67 131 147 72
SV
0 0 0 0.4955387452702974 0 0 0 0 0 0 0 0 0 0 0 0 0 1:3 2:4 3:4 4:4 5:4 6:4 7:2 8:4 9:3 10:3 11:5 12:3 13:2 14:8 15:7 16:5 17:3 18:6 19:8 20:4 
0.03588870518306581 0.135232554125052 0 0 0.1885942747454993 0.2425882145939552 0.09228876261893623 0.1963461593238893 0.1316882165502867 0.1602536792263169 0.1582965469080795 0.1397435856294438 0.1569099236092049 0.1586260416009916 0.1293276787078831 0 0.09449992867662008 1:2 2:4 3:3 4:5 5:4 6:2 7:3 8:3 9:4 10:1 11:6 12:3 14:5 15:8 16:6 17:4 18:3 19:3 20:8 21:3 
0 0 0.3550851512573038 0 0 0 0 0 0 0 0 0 0 0 0 0 0 1:2 2:4 3:4 4:3 5:5 6:3 7:2 8:3 9:3 10:2 11:3 12:3 14:1 15:8 16:6 17:3 18:4 19:4 20:8 21:3 
0.4515792602264646 0 0 0 0 0 0 0 0 0 0 0 0 0 0 0.307852182248039 0 1:3 2:5 3:4 4:4 5:3 6:2 7:1 8:3 9:3 10:3 11:5 12:3 14:3 15:5 16:6 17:5 18:4 19:4 20:8 21:4 
0 0 0.2029351117959903 0 0 0 0 0 0 0 0 0 0 0 0 0 0 1:3 2:5 3:4 4:3 5:5 6:3 7:4 8:3 9:3 10:3 11:5 12:3 13:2 14:8 15:6 16:5 17:4 18:5 19:10 20:4 
0.03936690917964544 0.2007961562874852 0.03407019720158923 0 0.20321606584205 0.1571364366575417 0.1151508588574406 0.2087390349785098 0.147697016612558 0.1508646524490971 0.1335320496893607 0.1598401734308371 0.1587100311878944 0.178129011974213 0.1070470552743944 0 0.1164332202265763 1:2 2:5 3:3 4:5 5:4 6:2 7:1 8:2 9:4 10:3 11:5 12:2 14:1 15:6 16:6 17:5 18:2 19:5 20:9 21:4 
0.4229088088043582 0 0 0 0 0 0 0 0 0 0 0 0 0 0.04399414337062161 0.3200791973576842 0 1:3 2:4 3:2 4:4 5:4 6:2 7:2 8:3 9:2 10:2 11:5 12:3 14:2 15:7 16:6 17:4 18:4 19:4 20:5 21:4 
0.03423099430170612 0.1136647856827446 0 0 0.08743541265181032 0.03805190498672461 0.05471555492727401 0.1226991194098877 0.07074374358200153 0.07169489079228288 0.4947416131516504 0.08179039421545413 0.07291272188726446 0.08394021786435053 0.4087481251551965 0.1811738837057621 0.05785304637685994 1:1 2:3 3:4 4:4 5:4 6:3 7:5 8:3 9:5 10:3 11:5 12:2 13:3 14:8 15:6 16:4 17:3 18:3 19:7 20:5 21:1 22:2 
0.03286865068363907 0.06243210887860336 0.08583044100106903 0.3569865000465907 0.07416716429316732 0.07395927161082645 0.06479860791493391 0.08622372723994207 0.05633718320303132 0.04192427849088069 0.1656035656883373 0.08109007005630105 0.1726722956625537 0.05113949760826634 0.09628882255942355 0.01474637763680371 0 1:3 2:4 3:4 4:4 5:4 6:3 7:5 8:3 9:2 10:4 11:5 12:3 13:1 14:3 15:7 16:6 17:4 18:3 19:6 20:9 21:5 
0 0 0.168507097056152 0 0 0 0 0 0 0 0 0 0 0 0 0 0 1:4 2:5 3:4 4:3 5:4 6:3 7:3 8:2 9:4 10:3 11:5 12:3 13:1 14:8 15:6 16:5 17:4 18:5 19:10 20:4 
0.3101555150739484 0.1818395397586447 0.4813812305289675 0.3969891504449352 0.2264953937944343 0.2044402160473532 0.1508319092175868 0.2316902244556865 0.1379603270559163 0.1622581333770708 0.1924114727800142 0.1851279499799448 0.1889642160693096 0.2026019290018353 0.2060215260604911 0 0.2701315098646107 1:3 2:5 3:4 4:2 5:3 6:3 7:3 8:3 9:4 10:3 11:6 12:3 14:3 15:8 16:5 17:5 18:4 19:5 20:10 21:2 
0.1385185609100465 0.1224519856179347 0.08517735633369061 0 0.1044923005967005 0.1130176282981689 0.06984789163391401 0.1190749200406047 0.06824485998868841 0.08743205705195785 0.1122778298450415 0.09402579733988266 0.08267294782232811 0.1009191691623834 0.1363778447278895 0.02584924859621378 0.02957268677660204 1:4 2:6 3:4 4:4 5:4 6:3 7:3 8:3 9:4 10:3 11:4 12:3 13:1 14:7 15:6 16:4 17:4 18:5 19:10 20:8 
0 0 0 0.2391139200614077 0 0 0 0 0 0 0 0 0 0 0 0.4218792377930418 0 1:2 2:5 3:3 4:4 5:4 6:4 7:2 8:3 9:4 10:3 11:4 12:3 14:3 15:5 16:6 17:4 18:4 19:5 20:9 21:4 22:1 
0 0 0 0 0 0 0 0 0 0 0 0 0 0 0 0.401973039525214 0 1:2 2:4 3:4 4:3 5:3 6:4 7:2 8:3 9:4 10:2 11:5 12:4 13:2 14:7 15:4 16:4 17:3 18:5 19:8 20:4 21:1 22:2 
0 0.05985711976184441 0 0 0.02172109146236525 0.0203926787775791 0 0.01953049190606103 0.005109468072490319 0.0179324260533212 0.1577976624963828 0.007450405431605443 0.01468943860075006 0.02129715473970935 0 0.4183280663821264 0 1:1 2:5 3:4 4:4 5:4 6:2 7:2 8:3 9:4 10:2 11:3 12:3 13:2 14:5 15:5 16:3 17:4 18:4 19:9 20:4 21:1 
0 0 0 0 0 0 0 0 0 0 0.1888884738717664 0 0 0 0.1413166059983307 0.4119510466682092 0 1:2 2:3 3:2 4:4 5:3 6:4 7:3 8:3 9:4 10:3 11:5 12:3 13:1 14:4 15:8 16:4 17:3 18:4 19:5 20:6 21:4 
0 0 0 0.06045037928832949 0 0 0 0 0 0 0 0 0 0 0 0 0.02267302711937004 1:4 2:5 3:5 4:4 5:4 6:1 7:3 8:4 9:4 10:3 11:5 12:3 13:2 14:8 15:6 16:5 17:5 18:6 19:8 20:5 
0.1161448171635845 0.1053163953965771 0.02556491930916413 0 0.1616551305569285 0.3009952772247438 0.09572990957622857 0.1451330111113247 0.1048965297887531 0.09294286092958171 0.1338319970467427 0.1389336439547398 0.1548452737403177 0.1145724656906432 0.1131198436856026 0 0.1864186003545545 1:4 2:5 3:5 4:4 5:4 6:3 7:3 8:3 9:4 10:2 11:5 12:4 13:3 14:2 15:9 16:6 17:4 18:4 19:5 20:8 21:5 
0.3237609477451128 0.3959464525803797 0.4785090728394863 0.4908188538187332 0.3819893183871467 0.3766315046783367 0.2410080542614617 0.3946962083657513 0.2171443779457595 0.2720458749138284 0.4974795174184455 0.3294830970708693 0.3386304192417831 0.3429893374687348 0.4360029515127665 0.3396753391947853 0.3027057472826235 1:2 2:5 3:6 4:4 5:3 6:3 7:2 8:2 9:4 10:3 11:3 12:1 13:3 14:8 15:5 16:2 17:4 18:6 19:7 20:3 
0.06738977873461083 0 0.07402768998738725 0 0 0.1773926273314328 0.2234487418040272 0 0 0 0.05967346476667711 0 0 0 0.2569928191689048 0 0.0769614261820544 1:3 2:5 3:3 4:3 5:2 6:3 7:5 8:3 9:3 10:3 11:5 12:3 13:4 14:8 15:6 16:4 17:4 18:5 19:6 20:4 
0.2275927209498705 0.1669622565614348 0.4190545042361492 0.07691688313870233 0.1916216849031258 0.246999614385936 0.1306358172114907 0.2018992004399736 0.1535528185158584 0.1617989778408615 0.2964907616781236 0.1568728501226614 0.1563286503778326 0.1706479367711842 0.4388723030425962 0.3446933089506496 0.141712282121108 1:2 2:3 3:5 4:3 5:3 6:1 7:4 8:3 9:3 10:2 11:5 12:3 14:2 15:8 16:6 17:2 18:3 19:5 20:7 21:3 22:1 
0 0 0 0.9499034558192098 0 0 0 0 0 0 0 0 0 0 0 0 0 1:3 2:5 3:4 4:4 5:3 6:4 7:3 8:2 9:3 10:2 11:5 12:3 13:2 14:6 15:7 16:5 17:4 18:6 19:6 20:5 
0 0 0 0 0 0 0 0 0 0 0 0 0 0 0 0.0534501343490186 0 1:4 2:5 3:4 4:4 5:4 6:3 7:2 8:3 9:4 10:2 11:5 12:3 13:2 14:3 15:6 16:6 17:5 18:4 19:5 20:8 21:4 
0.1435284767318341 0.1643839427987601 1 1 0.1856203164567434 0.1649562722354313 0.1084225303792905 0.1924011572516252 0.1241399152000534 0.1399045506758362 0.1823505360767395 0.1494389780372254 0.1646550100901888 0.1603031862456203 0.1097144872516125 0.1077707937876822 0.1393784799809779 1:3 2:4 3:4 4:3 5:3 6:5 7:2 8:3 9:4 10:2 11:5 12:3 13:2 14:8 15:7 16:5 17:3 18:6 19:8 20:2 
0.05884604507570699 0 0.4509127233647847 0.04149642765632445 0 0 0 0 0 0 0 0 0 0 0 0.2665913886845303 0.004992655911152965 1:3 2:4 3:3 4:3 5:4 6:3 7:2 8:2 9:3 10:3 11:5 12:3 14:2 15:8 16:5 17:5 18:4 19:5 20:5 21:4 
0 0.05512795973303376 0.1094881690716063 0 0.08220957047902516 0.09298146676453228 0.04180438788908133 0.07876928758832555 0.02689193047113459 0.05993731561901171 0.1089139803178341 0.07901013174859753 0.08207260006770101 0.0719889672148841 0.01698098323200016 0 0.03123963103521397 1:2 2:6 3:4 4:4 5:4 6:3 7:4 8:3 9:3 10:2 11:6 12:4 13:1 14:8 15:6 16:4 17:4 18:5 19:8 20:6 22:3 
0.02155971392039236 0.1183073467828788 0.1527418493982612 0.07005928848636671 0.06846754071114218 0.06171685883151175 0.04219866821833779 0.06917776039872982 0.008821620048675332 0.03937931396963427 0.1036151068737496 0.05527877963888839 0.06186950690244075 0.05922331533751266 0.05387303050341809 0 0.03213949035219007 1:1 2:5 3:4 4:3 5:3 6:3 7:2 8:3 9:4 10:2 11:3 12:2 13:2 14:7 15:3 16:4 17:3 18:5 19:8 20:3 
0 0 0 0 0 0 0 0 0 0 0 0 0 0 0 0.211067716626129 0 1:2 2:4 3:4 4:4 5:5 6:2 7:2 8:3 9:4 10:2 11:6 12:4 13:2 14:8 15:5 16:4 17:4 18:5 19:7 20:4 21:1 22:2 
0 0.02245996183626037 0 0 0.03815281729091156 0.01885295659280608 0.03102166535813937 0.04294726016752607 0.01543877792643251 0.03486353848217443 0 0.03958259759914503 0.03460811816548236 0.03890322060858664 0 0 0.005729015135314575 1:3 2:6 3:4 4:4 5:5 6:3 7:3 8:3 9:4 10:3 11:4 12:1 13:4 14:8 15:6 16:3 17:2 18:6 19:9 20:5 
0.2116068993101839 0 0 0 0 0 0 0 0 0 0 0 0 0 0 0 0 1:1 2:5 3:5 4:4 5:2 6:1 7:2 8:3 9:4 10:3 11:5 12:3 14:2 15:6 16:5 17:4 18:4 19:5 20:8 21:4 
0.2603413751153528 0.0269711761437808 0 0 0.06719442229958981 0.1479064042224363 0.03200124652217898 0.06796353580439825 0.07733802768003026 0.05060777763608283 0.1358811338482638 0.04658770834725439 0.04966014445567785 0.05624270540863145 0.02746765668692966 0.09705958064679181 0.1603720386412227 1:2 2:5 3:5 4:3 5:4 6:3 7:2 8:3 9:4 10:2 11:6 12:5 13:1 14:8 15:6 16:4 17:3 18:6 19:8 20:5 21:1 22:2 
0 0.0725359318767218 0.1433828976994311 0 0.07963771624505281 0.05629441907086716 0.08041162284075958 0.08478566728971458 0.07499407294593086 0.05118197815632542 0.09076905442160876 0.06719222371212112 0.07743085206580107 0.07759137502269108 0 0.02922982071523639 0.04600464273205029 1:2 2:6 3:2 4:2 5:4 6:3 7:3 8:3 9:3 10:2 11:5 12:2 13:1 14:6 15:4 16:4 17:3 18:5 19:8 20:6 
1 1 1 1 1 1 0.765572622829667 1 0.802961266439892 0.8287682866732594 1 0.9657432515829077 1 1 1 1 0.9075798731769028 1:2 2:6 3:4 4:3 5:4 6:2 7:3 8:4 9:4 10:4 11:6 12:3 13:1 16:2 17:7 18:6 19:5 20:4 21:5 22:9 23:6 
0.01637726760024127 0.04383557999614522 0.03702335765045354 0 0.06409548497399981 0.08859389273612193 0.03272597879306887 0.06319324607382172 0.206416069030025 0.0423044631041029 0.01999066790177676 0.04929543427160993 0.05595967330172498 0.05573285816717521 0.0327198626117435 0 0.04652453063022458 1:3 2:4 3:2 4:3 5:4 6:3 7:3 8:4 9:4 10:3 11:6 12:3 13:3 14:8 15:4 16:2 17:4 18:5 19:9 20:6 21:1 
0.08532924999768191 0.1616680242123387 0 0 0.1927914397479222 0.1944331656580419 0.1097965220872199 0.2052888025912735 0.1254685300392688 0.13587589224223 0.2198425944557762 0.1596209360587489 0.1691215311698962 0.1616842304940134 0.03533989570944925 0 0.151373472128816 1:1 2:5 3:3 4:4 5:4 6:3 7:2 8:5 9:4 10:2 11:2 12:3 14:2 15:8 16:6 17:3 18:2 19:4 20:8 21:5 
0.07763124489387546 0.07513000438316916 0 0.09990501257779164 0.0835004958240875 0.2288078093047989 0.0581389850517145 0.08427765403613992 0.06981027733254734 0.06164575377416717 0.08634852566793712 0.07290064833170717 0.09353494798081774 0.08914075098564088 0.1201117541009245 0.247718999808183 0.2840997859037103 1:5 2:6 3:3 4:4 5:4 6:2 7:2 8:3 9:4 10:4 11:5 12:3 13:2 14:3 15:7 16:6 17:5 18:4 19:5 20:9 21:4 
0 0.01155139906201566 0.1465397025211591 0 0.02799406344788905 0.02416345814323717 0.05163148265730443 0.04046559279552003 0.02884967624041639 0.1032268773338831 0.08476840443557557 0.04436606276256607 0.01971553323608696 0.03172801987400074 0.3655321182547778 0 0.02040608739143852 1:2 2:4 3:4 4:3 5:4 6:3 7:2 8:2 9:2 10:1 11:5 12:3 14:2 15:8 16:5 17:4 18:4 19:3 20:5 21:4 
0.1269225380631696 0 0 0 0 0 0 0 0 0 0 0 0 0 0 0 0 1:2 2:5 3:3 4:4 5:4 6:2 7:2 8:1 9:3 10:2 11:5 12:3 15:6 16:6 17:3 18:4 19:5 20:7 21:5 
0 0.04094999378381842 0 0 0 0 0 0 0.0338994293617103 0 0.07291256657764192 0 0 0 0 0.2314229544664726 0 1:1 2:5 3:3 4:3 5:3 6:2 7:1 8:3 9:4 10:5 11:5 12:2 14:3 15:7 16:5 17:3 18:4 19:4 20:7 21:4 
0.02593840375904382 0 0 0 0.04231996298233026 0.05455102000932688 0.005928872607693928 0.04534615701021727 0.06445163202875627 0.03624428684226824 0.1896887934103162 0.0434740599830615 0.04865284230761713 0.03834808701067195 0.07334651673283568 0 0.06429579793783488 1:2 2:5 3:1 4:4 5:4 6:2 7:4 8:3 9:3 10:3 11:5 12:3 13:4 14:7 15:4 16:3 17:4 18:5 19:7 20:5 
0.2959577437692272 0.2540417065707111 0.3345208466140366 0.214395090223458 0.306509348684543 0.4958486017348769 0.2944777501813684 0.3119167182740527 0.1723701404018345 0.2340168854969931 0.2707914889611873 0.3273956504223597 0.2928847744340386 0.293026656489023 0.3937553648557809 0 0.3436690821219213 1:3 2:5 3:3 4:4 5:4 6:3 7:3 8:1 9:1 10:2 11:6 12:3 14:3 15:8 16:6 17:4 18:4 19:3 20:6 21:4 
0.05955863969594444 0.03830293075421082 0.3417489474887931 0 0.06632276076652478 0.03957058447913273 0.01742921209156547 0.06081727974459693 0.00450044512048426 0.04146457785657739 0 0.05168258796903517 0.05541183291807593 0.05004281597695222 0 0 0.03905212916092077 1:2 2:5 3:4 4:4 5:5 6:4 7:3 8:1 9:4 10:2 11:5 12:4 13:1 14:9 15:7 16:5 17:4 18:5 19:7 20:5 
0 0 0 0.004080574439508455 0 0 0 0 0 0 0.01037557518980756 0 0 0 0 0.2299022876606556 0 1:4 2:6 3:4 4:4 5:4 6:4 7:2 8:4 9:4 10:2 11:5 12:3 13:3 14:3 15:8 16:6 17:5 18:4 19:5 20:8 21:4 
0 0 0 0 0 0 0 0 0.0006942326116952021 0 0 0 0 0 0 0 0 1:1 2:3 3:3 4:4 5:4 6:3 7:2 8:3 9:4 10:3 11:5 12:2 14:2 15:8 16:4 17:4 18:3 19:5 20:6 21:5 
0.4490092699361946 0.3715953730884023 0.59914503860111 0.1119240947784685 0.4147963227376238 0.4843022052949771 0.3407074115887619 0.4302498447447716 0.3136340103812907 0.3630764492753419 0.5330881704015821 0.3746826976400379 0.3720660005072436 0.4095735928146554 0.9813363008649598 0.6907839556959503 0.3798597006928215 1:3 2:4 3:3 4:2 5:4 6:3 7:1 8:2 9:4 10:2 11:5 12:2 13:2 14:8 15:5 16:4 17:3 18:5 19:4 20:4 
0 0.04246015350996092 0 0.0798293776615165 0.04394031014566691 0.04806657247800279 0.03534538932898941 0.05178678018421692 0.05717938337264872 0.03534160306666229 0 0.02762026842940231 0.008147339923598769 0.04392956734365629 0.0225152847941766 0 0.01376725053302952 1:3 2:6 3:4 4:5 5:5 6:3 7:3 8:3 9:4 10:3 11:5 12:3 13:2 14:8 15:6 16:7 17:4 18:5 19:9 20:6 
0.1508066200311462 0 0 0.1031375665467506 0 0 0 0 0 0 0 0 0 0 0 0 0.1146595826297403 1:4 2:5 3:2 4:4 5:2 6:4 7:2 8:2 9:4 10:3 11:5 12:3 13:2 14:8 15:6 16:5 17:4 18:5 19:7 20:3 
0.1831814938424708 0.2148535967734367 0.2381373461061513 0.2676873003720318 0.2821075282970658 0.2505043853111617 0.1524112708164129 0.2912636302730571 0.150408258108957 0.2043319353043218 0.2581231156256662 0.2394796790154945 0.247987677445518 0.2529101643292418 0.1456171637539297 0.0315466379796196 0.1868141596013786 1:2 2:4 3:2 4:5 5:2 6:3 7:4 8:3 9:4 10:3 11:5 12:3 13:3 14:8 15:3 16:3 17:4 18:6 19:9 20:4 
0 0 0.3487052887805581 1 0 0 0 0 0 0 0 0 0 0 0 0.3040907890941815 0 1:4 2:5 3:3 4:4 5:4 6:4 7:3 8:3 9:3 10:4 11:5 12:3 13:2 14:6 15:7 16:6 17:4 18:5 19:10 20:5 
0.156551226827371 0.1619578667772891 0.08981278072281236 0 0.2318973305942686 0.260249109456702 0.2216729276412494 0.2416987576797588 0.1525527283730422 0.1744432101169534 0.1865632518347802 0.2512951391284493 0.2176839161417983 0.2262907113153826 0.3987077711027808 0.0887268020823762 0.1632781065534627 1:3 2:5 3:5 4:4 5:3 6:4 7:2 8:3 9:4 10:1 11:3 12:3 13:2 14:8 15:7 16:5 17:3 18:3 19:8 20:3 21:1 
0.4099814080038752 0.4221639825809969 0.3274703351609152 0.3229923466715666 0.309627026740149 0.3055998503705789 0.2840380180599775 0.3227017156715606 0.4508170124133428 0.2414749169451834 0.6427001539323741 0.2689588173042929 0.2783269862611958 0.2796529222541751 0.7029285130858367 0.4274077156271188 0.2320258419172157 1:2 2:3 3:2 4:4 5:2 6:3 7:3 8:2 9:4 10:2 11:3 12:3 13:1 14:7 15:4 16:2 17:4 18:5 19:6 20:4 
0 0.1189121581775471 0 0 0.07892485687060805 0.05232981708141778 0.05111277426745992 0.0802540886454029 0.04905311356256728 0.05970929971841836 0.1433821197566112 0.06312333187054479 0.05143945203606651 0.07274210107761125 0.09313177015206375 0 0 1:3 2:4 3:4 4:4 5:4 6:3 7:3 8:3 9:4 10:5 11:5 12:3 14:4 15:8 16:5 17:4 18:5 19:5 20:10 21:4 
0 0.1342854007203234 0 0 0 0 0 0 0.220231032695895 0 0 0 0 0 0 0.09420788309021584 0 1:2 2:4 3:2 4:4 5:3 6:3 7:2 8:3 9:4 10:2 11:3 12:3 13:2 14:6 15:3 16:3 17:4 18:5 19:8 20:4 
0.6064099262398582 0.6050105328501243 0.6574414981332249 0.8151873387618619 0.6842717968114949 0.7286696337041701 0.4618992615143942 0.7025500186352314 0.4884737594564041 0.5036136552343641 0.8336220397395824 0.5800066031695401 0.6083105555837457 0.6095203374130798 0.6951348011575492 0.7894374243374271 0.5365966232377334 1:1 2:5 3:4 4:5 5:4 6:5 7:2 8:2 9:4 10:5 11:7 12:4 13:3 14:7 15:8 16:4 17:4 18:4 19:9 20:4 21:2 22:3 
0.002281055271453678 0.07690290757891625 0 0 0.06262602037392762 0.05696024559701361 0 0.06068670417745947 0.1972355629311984 0.0508912083769397 0.005878692558258619 0.03873399675365884 0.05010605861134834 0.04225843209819961 0 0 0.01157727068251427 1:1 2:4 3:3 4:4 5:4 6:2 7:1 8:2 9:4 10:4 11:5 12:2 13:3 14:8 15:5 16:3 17:2 18:5 19:6 20:4 
0 0 0 0 0 0 0 0 0 0 0 0 0 0 0 0.1654284894521533 0.2059494799881486 1:3 2:5 3:2 4:2 5:4 6:1 7:3 8:3 9:3 10:2 11:5 12:3 14:2 15:6 16:5 17:4 18:4 19:5 20:6 21:4 
0 0 0 0 0 0 0 0 0 0 0 0 0 0 0 0.01195863437784964 0 1:3 2:5 3:4 4:3 5:4 6:3 7:2 8:3 9:4 10:4 11:4 12:3 14:3 15:8 16:4 17:4 18:6 19:5 20:8 21:4 
0.09468008126678046 0.1511822303493708 0.2469545675745479 0.1171926804323211 0.1315957112239326 0.1118545328772213 0.078913481511274 0.1356553888582789 0.03453717731594962 0.09370742171199753 0.2694238840776286 0.1286291714188818 0.1230465477777176 0.1141544827814578 0.123138531873152 0.2306608071318087 0.0886860700323924 1:2 2:4 3:3 4:4 5:4 6:5 7:3 8:2 9:5 10:1 11:5 12:3 13:3 14:6 15:7 16:3 17:5 18:6 19:7 20:4 
0 0 0 0 0 0 0 0 0 0 0 0 0 0 0.06952819653559905 0 0 1:3 2:3 3:4 4:4 5:4 6:3 7:3 8:3 9:3 10:4 11:4 12:2 14:4 15:8 16:4 17:4 18:3 19:5 20:8 21:4 
0.08438443855095418 0.1299194043799086 0.1574944345369829 0.2971322361013091 0.1222354417928371 0.1346242267560985 0.05251826711917433 0.1107036321974709 0.06728815592138361 0.07642503566053963 0.3085317784273381 0.1162556704084887 0.1366435795938125 0.09957009219431492 0.03460660689715869 0.4801699569840974 0.08367633558902594 1:3 2:6 3:4 4:3 5:4 6:3 7:4 8:4 9:4 10:4 11:5 12:2 13:4 14:7 15:6 16:6 17:4 18:5 19:7 20:7 
0 0 0 0 0 0 0 0 0 0 0 0 0 0 0 0.02104755414423842 0 1:3 2:5 3:3 4:4 5:4 6:2 7:2 8:3 9:4 10:4 11:5 12:4 13:1 14:3 15:7 16:6 17:4 18:4 19:5 20:8 21:4 22:1 
0.1665766254323436 0.3040762947627189 0.2767901620714654 0.01208957257423024 0.3062883434401265 0.2953726556394582 0.1845775460596161 0.3164535404858884 0.4279902754913928 0.2198831869370975 0.2735187335878951 0.2483560148886821 0.2658839666672066 0.2674322236587681 0.2493700576375331 0 0.2437189082315623 1:2 2:2 3:3 4:4 5:4 6:3 7:1 8:3 9:4 10:3 11:5 12:2 14:2 15:7 16:5 17:1 18:4 19:4 20:9 21:4 
0 0 0.2692107775220851 0 0 0 0 0 0 0 0 0 0 0 0 0 0 1:2 2:5 3:2 4:2 5:4 6:3 7:3 8:3 9:3 10:3 11:5 12:3 14:1 15:7 16:6 17:3 18:4 19:5 20:9 21:3 
0.008934245936799595 0.05285997718909222 0 0 0.08760101970846132 0.08554986225148101 0.04978662226270357 0.08885867058323674 0.02236431868476904 0.0665800597371501 0.03615977906966129 0.06876835261985062 0.05929023456039707 0.08145294665586017 0 0 0.08275535551370268 1:2 2:6 3:4 4:4 5:4 6:3 7:2 8:4 9:4 10:3 11:5 12:2 14:2 15:9 16:5 17:2 18:4 19:7 20:9 21:5 
0.1098972710570822 0.05363775216892785 0.07811534505976267 0.1113282463489942 0.09296023387840578 0.07722416250926978 0.05252841851004303 0.09507435749742266 0 0.06826402983587185 0.06480461901418799 0.07318353144843229 0.07093582528991925 0.08192489210906993 0.05053463498553788 0 0.07952884366553516 1:3 2:6 3:3 4:4 5:4 6:3 7:2 8:5 9:5 10:3 11:5 12:3 13:2 14:8 15:6 16:4 17:6 18:5 19:9 20:6 
0 0 0 0.05651414792202444 0 0 0 0 0 0 0 0 0 0 0 0 0 1:3 2:5 3:4 4:3 5:3 6:3 7:3 8:2 9:4 10:3 11:5 12:3 14:3 15:5 16:6 17:5 18:4 19:4 20:9 21:5 
0 0.07332421753538924 0.1925841078634115 0.125921227604387 0.07758472520859309 0 0.05968440133322287 0.08836309280481919 0.0612995734821867 0.06954731483136239 0.1408249942309346 0.07696815577616155 0.06682312449116531 0.08132378129886016 0.07504088317354601 0.1233444692503444 0.0590360300137695 1:4 2:6 3:4 4:4 5:5 6:3 7:2 8:3 9:5 10:2 11:5 12:3 13:3 14:2 15:8 16:6 17:5 18:4 19:6 20:8 21:4 
0 0 0.02095766279564796 0 0 0 0 0 0 0 0 0 0 0 0 0 0 1:3 2:4 3:4 4:3 5:4 6:4 7:1 8:3 9:4 10:3 11:5 12:3 13:2 14:7 15:6 16:5 17:4 18:5 19:9 20:3 
0 0 0 0.5756815616809696 0 0 0 0 0 0 0 0 0 0 0 0 0 1:2 2:5 3:4 4:4 5:3 6:4 7:2 8:4 9:3 10:3 11:5 12:2 14:2 15:8 16:7 17:3 18:5 19:5 20:7 21:4 
0 0.2060761804770697 0.1438267814002677 0.009313125076919882 0.2012681333963497 0.2058763054744599 0.1220367432849619 0.2102942073089382 0.1453646992926787 0.1487232282111533 0.2658851149750795 0.1654864108919766 0.1681810437979413 0.1816105949857461 0.1844735370752617 0.3722239412647637 0.1354956201977492 1:3 2:5 3:4 4:4 5:3 6:2 7:2 8:5 9:4 10:3 11:5 12:2 13:2 14:5 15:7 16:3 17:4 18:5 19:9 20:7 
0 0 0 0.7154708150163634 0 0 0 0 0 0 0 0 0 0 0 0.1841613147154872 0 1:3 2:5 3:2 4:3 5:4 6:2 7:3 8:4 9:4 10:4 11:5 12:3 13:3 14:6 15:8 16:4 17:4 18:5 19:8 20:4 
0.1100416972600416 0.2219211347504382 0.1351994097804442 0 0.287164531918367 0.2949060482045903 0.1989930134564482 0.2772939058903399 0.2123208188699942 0.1997952216782782 0.2323919083815389 0.2438169775011287 0.3171363950984704 0.2396814058016205 0.2793419533020703 0.006151390151602916 0.2317408193890833 1:5 2:6 3:4 4:4 5:4 6:4 7:4 8:3 9:3 10:3 11:5 12:3 13:3 14:7 15:7 16:5 17:4 18:5 19:10 20:7 
0 0 0 0 0 0 0 0 0.0005857138948027795 0 0 0 0 0 0 0 0 1:2 2:5 3:3 4:2 5:3 6:3 7:3 8:3 9:4 10:3 11:4 12:3 14:3 15:7 16:3 17:4 18:4 19:4 20:9 21:4 
0.1852665339214264 0 0 0 0 0 0 0 0 0 0 0 0 0 0 1 0.04072777505244454 1:4 2:4 3:4 4:4 5:4 6:2 7:1 8:2 9:4 10:3 11:5 12:3 13:3 14:5 15:6 16:5 17:4 18:5 19:7 20:5 
0 0 0.1541204004596863 0.4226270290147114 0 0 0 0 0 0 0 0 0 0 0 0.1476639657509044 0 1:3 2:5 3:4 4:5 5:5 6:3 7:2 8:3 9:4 10:4 11:5 12:3 14:2 15:8 16:6 17:5 18:5 19:6 20:9 21:4 22:1 
0.4273652401199799 0.3952569161709104 0.5078757400679687 0.6332334460194844 0.4433222091822254 0.439516307621528 0.3030221431099933 0.4588496301920286 0.3025161773041321 0.3293903203028607 0.4982670318881843 0.3782130421311097 0.3882133091017883 0.3976481122037324 0.5396819533711404 0.2631841526313966 0.3573656444381648 1:2 2:5 3:3 4:4 5:4 6:3 7:4 8:4 9:4 10:4 11:3 12:3 14:2 15:8 16:9 17:2 18:3 19:5 20:9 21:5 
0.003525509715512908 0.05978906690891431 0 0 0.009410984452164994 0.02850903802546606 0 0.009371827662626907 0.02615442276003314 0.007385259188252081 0.01344687530340931 0.003735864504207106 0 0.01032669027089612 0 0.01200582413017317 0.02536344763125812 1:3 2:5 3:3 4:4 5:3 6:2 7:3 8:3 9:5 10:5 11:5 12:4 13:4 14:8 15:6 16:3 17:4 18:5 19:9 20:4 22:2 
0 0 0 1 0 0 0 0 0 0 0 0 0 0 0 0 0 1:3 2:5 3:4 4:4 5:4 6:3 7:3 8:3 9:3 10:4 11:5 12:3 14:2 15:7 16:7 17:5 18:4 19:6 20:9 21:4 
0 0 0 0 0 0 0 0 0 0 0 0 0 0 0 0.06684578699973844 0 1:3 2:4 3:3 4:3 5:4 6:3 7:2 8:3 9:4 10:2 11:3 12:3 13:1 14:3 15:7 16:5 17:2 18:4 19:5 20:6 21:4 
0.8097685395381561 0 0.02745720281962861 0.5308477764662473 0 0 0 0 0 0 0 0 0 0 0 0 0.2419439741911115 1:3 2:5 3:4 4:4 5:3 6:2 7:3 8:3 9:2 10:2 11:6 12:3 13:2 14:5 15:6 16:5 17:4 18:5 19:9 20:4 
0.3148934045524823 0.2920109512186974 0.4687395110834066 0.6473998582572763 0.3394579918684181 0.4012428737054627 0.2262573016312433 0.3469667612712257 0.2758115122979166 0.2959895939228508 0.4711454429918641 0.2850407503352856 0.2977090844473726 0.3056711201278403 0.5407453131110158 0.4138689827240822 0.2361939050407822 1:3 2:3 3:4 4:4 5:3 6:2 7:4 8:3 9:2 10:4 11:5 12:3 13:4 14:7 15:6 16:5 17:4 18:3 19:8 20:3 
0 0 0 0 0 0 0 0 0 0 0 0 0 0 0 0.03497743959488345 0 1:3 2:5 3:4 4:4 5:5 6:3 7:2 8:2 9:5 10:2 11:3 12:3 13:1 14:7 15:6 16:5 17:4 18:6 19:7 20:5 
0.2979333119029836 0.3232057790647779 0.389693236937754 0.3484119305408433 0.3933692295834904 0.5031926364232899 0.2485252251615572 0.3970635167136404 0.2489833113036647 0.2645447261934731 1 0.353084680110531 0.424802306195213 0.3225996160772713 0.4246087368193842 0.6117760643609327 0.2774292415255901 1:2 2:5 3:4 4:5 5:4 6:3 7:5 8:4 9:5 10:3 11:5 12:3 13:3 14:8 15:6 16:3 17:4 18:5 19:8 20:5 21:4 22:2 
0 0 0 0.2186806293251005 0 0 0 0 0 0 0 0 0 0 0 0 0 1:3 2:6 3:5 4:3 5:4 6:3 7:3 8:4 9:4 10:3 11:5 12:3 13:1 14:8 15:7 16:5 17:5 18:5 19:9 20:6 
0.05630417263445224 0.2192162990133496 0.2458417495760739 0.1265689338432225 0.1910108957669691 0.168255038031736 0.2591852744071517 0.2054541679666432 0.100669096796766 0.1326371847757236 0.2231386678215885 0.2224987024022449 0.2022324195949718 0.2140610276139445 0.6013952068165738 0 0.1059567242713372 1:3 2:5 3:1 4:4 5:4 6:3 7:3 8:3 9:4 10:2 11:3 12:1 13:1 14:3 15:8 16:6 17:2 18:2 19:4 20:7 21:3 
0.1239447834910126 0.09850547416876271 0 0 0.1238840909393162 0.1907414035585442 0.06986241782359225 0.113866860324225 0.08146063792170075 0.07944003886206293 0.3773596706445378 0.09533995278420279 0.1137639940427013 0.09712152491946692 0.109439684130602 0.2797516264290731 0.1395228246241508 1:3 2:5 3:4 4:4 5:4 6:3 7:3 8:2 9:5 10:3 11:6 12:4 14:3 15:7 16:6 17:5 18:4 19:5 20:8 21:6 23:2 
0 0.03925216615172249 0 0 0.03735243050472983 0 0.02796641646755165 0.04684374283381643 0 0.007768232638499065 0.01498473455956397 0.04063549111830134 0.03049703089361235 0.03799899284501732 0 0 0 1:3 2:4 3:5 4:4 5:4 6:3 7:3 8:3 9:4 10:1 11:5 12:2 14:1 15:8 16:5 17:4 18:5 19:4 20:8 21:6 
0 0 0 0 0 0 0 0 0.03298525539835825 0 0 0 0 0 0 0 0 1:2 2:5 3:3 4:4 5:3 6:2 7:1 8:4 9:4 10:3 11:5 12:3 13:2 14:5 15:6 16:3 17:3 18:5 19:9 20:6 
0 0 0.01488399700550441 0.3090794389475346 0 0 0 0 0 0 0 0 0 0 0 0 0 1:2 2:5 3:4 4:3 5:3 6:5 7:3 8:3 9:4 10:2 11:4 12:3 13:2 14:7 15:7 16:4 17:4 18:5 19:9 20:3 
0 0 0.4630522623499749 0 0 0 0 0 0 0 0 0 0 0 0 0 0 1:3 2:5 3:4 4:3 5:4 6:3 7:2 8:3 9:3 10:2 11:6 12:3 14:1 15:8 16:6 17:5 18:4 19:5 20:9 21:3 
0 0 0 0 0 0 0 0 0.0282025577424255 0 0 0 0 0 0 0 0 1:1 2:5 3:3 4:3 5:4 6:2 7:2 8:2 9:4 10:2 11:5 12:2 13:1 14:5 15:5 16:3 17:4 18:5 19:8 20:4 
0.1295404020784492 0.03680913419304743 0.04405113235357234 0.4608840407907463 0 0 0.04413443501665622 0 0.03972390522010909 0 0.05915338786693531 0 0 0 0 0 0 1:3 2:5 3:2 4:4 5:4 6:3 7:2 8:3 9:3 10:1 11:3 12:3 14:2 15:5 16:5 17:4 18:4 19:5 20:8 21:3 
0.1758602119912107 0 0 1 0 0 0.04614363255676911 0 0 0 0 0 0 0 0 0.08725250828911188 0 1:3 2:5 3:3 4:4 5:2 6:4 7:3 8:3 9:3 10:2 11:4 12:3 13:3 14:5 15:7 16:4 17:4 18:5 19:8 20:3 
0.1405417546993646 0.3134778662808123 0.166099997312833 0.224155711240589 0.3270706144676911 0.3738049732892917 0.1940782192700628 0.3354166805920063 0.2555848748589967 0.2410513118298326 0.4121324446145216 0.289808067339186 0.2895950776025016 0.3073854553811916 0.8773213272941249 0.3464207129614039 0.2387671089875839 1:2 2:4 3:3 4:4 5:5 6:2 7:1 8:2 9:4 10:2 11:3 12:3 14:2 15:8 16:6 17:3 18:2 19:4 20:5 21:4 22:1 
0 0 0 0 0 0 0 0 0 0 0 0 0 0 0 1 0 1:3 2:4 3:4 4:4 5:4 6:3 7:1 8:2 9:5 10:2 11:5 12:3 13:1 14:2 15:5 16:6 17:4 18:4 19:5 20:8 21:4 22:1 
0.08161896954844716 0.1156994331158132 0.06270623489641897 0 0.1792951904617097 0.1698264848480361 0.1422250856109062 0.1835934342815315 0.02340320856729611 0.1213033307142976 0.05612113134175203 0.1636486520730342 0.1649259115277809 0.1565929925538688 0.2648275705838231 0 0.1385419396336377 1:2 2:5 3:3 4:4 5:4 6:3 7:3 8:3 9:3 10:2 11:3 12:1 13:1 14:8 15:6 16:2 17:2 18:4 19:7 20:6 
0.05298829177281208 0 0 0.2141483741302564 0 0 0 0 0 0 0 0 0 0 0 0 0 1:3 2:5 3:4 4:4 5:1 6:3 7:4 8:2 9:4 10:3 11:5 12:2 14:2 15:8 16:5 17:4 18:4 19:5 20:8 21:4 
0 0 0 0 0 0 0 0 0 0 0 0 0 0 0 0.07390273971744808 0 1:3 2:3 3:2 4:4 5:4 6:3 7:2 8:2 9:4 10:3 11:4 12:2 14:3 15:6 16:5 17:3 18:4 19:4 20:7 21:4 
0.07432518380700494 0.07544661781468343 0.07997631549478525 0.6607888040519636 0.03225804059072365 0.02137517316404725 0 0.03570422847502812 0 0.01976864105899506 0 0.02600609658442981 0.02669029557394026 0.03934075446340628 0 0 0.0473388778934825 1:3 2:5 3:2 4:4 5:3 6:2 7:3 8:3 9:4 10:4 11:5 12:3 13:3 14:7 15:7 16:4 17:4 18:5 19:9 20:2 
0 0 0.06614162934341869 0 0 0 0 0 0 0 0 0 0 0 0 0 0 1:3 2:5 3:3 4:4 5:4 6:3 7:2 8:2 9:1 10:4 11:5 12:3 14:2 15:8 16:6 17:4 18:4 19:4 20:7 21:4 
0 0 0 0 0 0 0 0 0 0 0 0 0 0 0 0.2756673955338569 0 1:2 2:3 3:4 4:4 5:4 6:3 7:2 8:4 9:4 10:3 11:4 12:3 13:1 14:3 15:8 16:5 17:1 18:4 19:5 20:8 21:4 22:1 
0 0 0 0.768307824905947 0 0 0.003586259870789874 0 0 0 0 0 0 0 0 0 0 1:3 2:6 3:4 4:4 5:4 6:4 7:5 8:3 9:3 10:2 11:4 12:3 13:3 14:7 15:7 16:5 17:4 18:6 19:7 20:6 
0 0.03068230885794252 0 0 0.05629986684369927 0.03858879873940727 0.02025945801263119 0.06205946570317066 0.02713465225291717 0.02149720276454232 0.02305360201495588 0.07185891030421307 0.06862643599532854 0.05052292571786264 0 0 0.01901714063828677 1:3 2:5 3:5 4:5 5:4 6:3 7:4 8:3 9:2 10:4 11:4 12:3 13:5 14:7 15:6 16:5 17:4 18:4 19:9 20:5 
0 0 0 0.141058291703815 0 0 0 0 0 0 0 0 0 0 0 0 0 1:2 2:6 3:3 4:4 5:4 6:4 7:3 8:5 9:3 10:3 11:4 12:3 13:1 14:8 15:7 16:4 17:4 18:5 19:8 20:7 
0 0 0 0.03262288966176761 0 0 0 0 0 0 0.10950679883983 0 0 0 0.003274600304662588 0.1374320760632567 0 1:2 2:4 3:3 4:4 5:4 6:3 7:4 8:3 9:4 10:4 11:5 12:3 14:4 15:8 16:7 17:4 18:4 19:5 20:6 21:5 
0 0 0 0 0 0 0 0 0 0 0 0 0 0 0 0.2323940090337361 0 1:2 2:5 3:5 4:3 5:4 6:4 7:2 8:3 9:4 10:3 11:5 12:3 14:3 15:8 16:6 17:3 18:5 19:6 20:7 21:4 22:1 
0 0 0.590953963142377 1 0 0 0 0 0 0 0.06750256356964349 0 0 0 0 0.7959147133781759 0 1:2 2:3 3:4 4:3 5:4 6:4 7:3 8:3 9:3 10:4 11:5 12:3 14:2 15:7 16:6 17:5 18:4 19:5 20:7 21:5 
0.5167826307520478 0.5518432622573544 0.4532904116702412 0.4576571935067074 0.5554869146026672 0.6019441387729054 0.4320632583068583 0.585099283112725 0.7746719409827986 0.4104009795304195 0.7083589545426638 0.4905342999655637 0.5129698944129343 0.5020503753143966 0.7592055033201197 0.6035180401966342 0.4716773843908945 1:2 2:5 3:3 4:1 5:2 6:3 7:3 8:1 9:4 10:2 11:6 12:2 14:3 15:5 16:4 17:3 18:3 19:5 20:6 21:5 
0 0 0 0 0 0 0 0 0 0 0 0 0 0 0 0 0.07077230433825271 1:5 2:6 3:3 4:3 5:4 6:4 7:3 8:3 9:4 10:3 11:5 12:3 13:2 14:7 15:7 16:4 17:4 18:5 19:10 20:7 
0.1839123323701159 0.2665270545265458 0.1429999854044916 0 0.2869461313603609 0.2803116036106888 0.1890525958009069 0.2988273569313472 0.195646154595725 0.2182553790935481 0.3228771614306101 0.2434498056587586 0.2835988001062104 0.2562341023786221 0.2984427535587199 0.0483076092857351 0.1710836292099213 1:3 2:6 3:3 4:3 5:4 6:3 7:3 8:4 9:5 10:3 11:5 12:2 13:1 14:2 15:7 16:6 17:2 18:4 19:5 20:10 21:7 
0 0 0 0.1135795383284716 0 0 0 0 0 0 0.09614700938185335 0 0 0 0 0.4498296589988199 0 1:3 2:4 3:4 4:5 5:5 6:3 7:3 8:3 9:3 10:2 11:5 12:2 13:2 14:8 15:5 16:6 17:4 18:5 19:6 20:5 21:1 
0.09087553230348247 0.1252720089404253 0.005386817645538882 0 0.1158621491164264 0.1118854119796897 0.09119090128221904 0.1235526626622599 0.04717562689840635 0.09036855063349032 0.1316685821847405 0.09008789191215363 0.09969019576171038 0.1060733672930105 0.1494686527008414 0.05362465272584706 0.09633568159462506 1:4 2:5 3:4 4:4 5:4 6:3 7:3 8:4 9:4 10:4 11:4 12:3 13:4 14:8 15:4 16:5 17:4 18:5 19:10 20:6 
0.8093854281251068 0.265914603212337 0.6113313191689498 0.7056031040631631 0.3161923153722636 0.2936148622665504 0.202688687562956 0.3249218044146669 0.21069469922322 0.2195379407113235 0.4140444988600258 0.2731283072114174 0.2783591466780847 0.2870518616409385 0.3029893247088343 0.3316771830211512 0.3221687488499184 1:2 2:5 3:5 4:4 5:4 6:3 7:2 8:2 9:2 10:1 11:5 12:3 13:1 14:1 15:5 16:6 17:4 18:5 19:4 20:8 21:4 
0.1294628690173431 0 1 1 0 0 0.02021554636151901 0 0 0 0.1251726582147694 0 0 0 0.1487232159795105 0.03232750616269162 0 1:2 2:5 3:3 4:4 5:4 6:5 7:3 8:2 9:3 10:4 11:4 12:3 13:2 14:7 15:8 16:5 17:5 18:4 19:7 20:4 
0 0 0 0.1611244813313726 0 0 0 0 0 0 0 0 0 0 0 0 0 1:2 2:5 3:4 4:4 5:2 6:3 7:5 8:3 9:4 10:4 11:5 12:3 13:4 14:7 15:5 16:5 17:4 18:5 19:9 20:5 
0 0 0 0 0 0 0 0 0 0 0 0 0 0 0 0.3515488200314338 0 1:4 2:4 3:3 4:4 5:3 6:2 7:3 8:3 9:4 10:3 11:5 12:3 13:1 14:3 15:7 16:4 17:5 18:4 19:6 20:8 21:3 
0.1138292304911797 0.06493143600790084 0.002329770521850333 0.1458983238465004 0.0711312673191528 0.04148763047594697 0.05384683973523719 0.07031297402774894 0.05199189647835113 0.0526515244416332 0.08086548726686046 0.05544328668076568 0.05134429922365486 0.06530385669735329 0.1009226945321905 0.1857167477730925 0.06690690234462844 1:3 2:6 3:4 4:5 5:3 6:3 7:4 8:2 9:4 10:3 11:6 12:4 13:1 14:7 15:6 16:4 17:4 18:6 19:10 20:6 21:1 22:2 
0 0 0 0 0 0 0 0 0 0 0 0 0 0 0.1696823282044439 0 0 1:3 2:5 3:3 4:3 5:4 6:3 7:3 8:2 9:3 10:4 11:4 12:2 13:4 14:8 15:6 16:3 17:3 18:5 19:6 20:4 
0.2113049808470951 0.2252789305527241 0.352990020867764 0.5990108343784983 0.2110057915603631 0.2061618042546609 0.1452697960052688 0.2151038477697325 0.1260115269938012 0.151750856759844 0.3039154529209216 0.1774110077077376 0.2101509957774063 0.1807121351329112 0.1972728925523233 0.1155770698502254 0.1889276991072942 1:3 2:5 3:2 4:3 5:4 6:5 7:2 8:4 9:6 10:2 11:5 12:3 13:1 14:2 15:8 16:6 17:4 18:5 19:6 20:8 21:4 
0.2919561034205237 0 0 0 0 0 0 0 0 0 0 0 0 0 0 0.5793681191888649 0 1:3 2:5 3:3 4:4 5:4 6:1 7:1 8:2 9:4 10:3 11:4 12:3 13:1 14:3 15:7 16:6 17:4 18:3 19:5 20:6 21:2 
-0 0.1292994366472678 0 0 0.1475033665651374 0.2009066660031598 0.0959463277758303 0.1516957482938768 0.07661122199829369 0.231515874160402 0.142815526175684 0.1254558391883945 0.1319620658019967 0.1153540017255865 0.1214541438146192 0 0 1:2 2:5 3:3 4:3 7:2 8:2 9:2 10:3 11:6 12:8 14:1 15:4 16:7 17:7 18:5 19:5 20:5 21:2 
-0 0 0 0 0 0 0 0 0 0 0 0 0 0 0 0 0.3996771460918929 1:3 2:6 3:3 4:1 5:1 6:2 7:2 8:2 9:2 10:3 11:6 12:5 13:1 14:3 15:6 16:5 17:7 18:5 19:6 20:3 
-0 0 0 0.1064165134635645 0 0 0 0 0 0 0 0 0 0 0 0.01495809873103396 0 1:3 2:4 3:3 4:4 5:2 6:2 7:2 8:2 9:2 10:5 11:6 12:6 13:2 14:4 15:6 16:7 17:7 18:4 19:8 20:3 
-0 0 0 0 0 0 0 0 0 0 0 0 0 0 0 0.04852349639411694 0 1:2 2:3 3:5 4:4 5:2 6:2 7:2 8:2 9:3 10:2 11:5 12:6 14:5 15:5 16:6 17:7 18:5 19:7 20:3 
-0.1050157661492037 0.1406385173889148 0.2087838105217353 0 0.1280702733371885 0.1053401080777037 0.09193709098372613 0.1321145532685251 0.1057577879026779 0.1308586892133916 0.1403887515530589 0.1095750258421266 0.1152105958287686 0.1298122469436375 0.1601660435292755 0.1100674560668489 0.1214288883364361 1:3 2:5 3:2 4:2 5:2 6:2 7:2 8:2 9:3 10:3 11:6 12:6 13:3 14:6 15:6 16:7 17:7 18:7 19:2 
-0.168786971779901 0.06886246068151668 0.04727483454780543 0 0.08167367092252485 0.1720852750327708 0.05192194583731252 0.08239674111312061 0.06674256195320385 0.08214777240494328 0.1054485422026076 0.0695217212927824 0.07245481484512993 0.07456601774536407 0.09804182755150652 0.1916340078629675 0 1:3 2:5 3:4 4:4 5:2 6:2 7:2 8:1 9:3 10:3 11:8 12:7 13:1 14:5 15:7 16:7 17:5 18:5 19:7 20:5 22:2 
-0 0 0 0.0659566153652637 0 0 0 0 0 0 0 0 0 0 0 0 0 1:1 2:3 3:3 4:4 5:1 6:3 7:2 8:2 9:2 10:4 11:6 12:6 13:1 14:4 15:7 16:6 17:5 18:4 19:7 20:3 
-0.004910260891231879 0 0 0.2427297787800046 0 0 0 0 0 0 0.008843527984933765 0 0 0 0 0.4757834871293731 0 1:4 2:5 3:4 4:4 5:2 6:2 7:2 8:2 9:2 10:4 11:6 12:5 13:3 15:3 16:7 17:6 18:6 19:5 20:7 21:4 22:1 
-0.0866793053531425 0 0 0.2092180214878113 0 0 0 0 0 0 0 0 0 0 0 0 0 1:2 2:6 3:3 4:4 5:3 6:2 7:3 8:2 9:3 10:3 11:6 12:6 13:1 14:4 15:7 16:6 17:6 18:6 19:7 20:4 21:2 
-0 0 0 0 0 0 0 0 0 0 0 0 0 0 0 0 0.05149361181544507 1:4 2:6 3:4 4:4 5:2 6:2 7:2 8:2 9:2 10:2 11:6 12:5 13:3 14:7 15:6 16:7 17:6 18:8 19:4 
-0 0 0.01426528152343467 0 0 0 0 0 0 0 0 0 0 0 0 0 0 1:3 2:4 3:3 4:2 5:2 6:2 7:1 8:3 9:3 10:3 11:5 12:5 14:2 15:7 16:7 17:5 18:5 19:7 20:3 
-0 0 0.08391424395604617 0.2564733496535535 0 0 0 0 0 0 0 0 0 0 0 0 0 1:3 2:5 3:3 4:4 5:3 6:3 7:2 8:2 9:3 10:3 11:6 12:7 14:1 15:4 16:8 17:8 18:7 19:6 20:7 21:3 
-0 0 0 0 0 0 0 0 0 0 0 0 0 0 0 0 0.1713909132953059 1:4 2:4 3:5 4:3 5:2 6:2 7:2 8:2 9:3 10:1 11:6 12:7 13:1 14:5 15:5 16:7 17:7 18:6 19:7 20:3 
-0.2351547074603526 0 0.0214802983668543 0.04701607656675311 0.005541060940095444 0 0.004024759997729306 0.005969222708316264 0 0 0.007698028422700382 0.006114227394118295 0.004519408720919165 0.01262560150289911 0.01998341360039745 0.07523803981394724 0 1:4 2:4 3:4 4:4 5:2 6:2 7:3 8:3 9:2 10:2 11:6 12:7 13:1 14:4 15:7 16:7 17:5 18:6 19:10 20:3 
-0.7370991536826207 0.7595967387625101 0.8467851019310316 0.8443929431597035 0.8497030749329618 0.9214544226285005 0.5879946106803201 0.8745508793564587 0.6136209011944931 0.6193421343258072 1 0.7365972412746329 0.7672851067830266 0.7662715675789443 0.9135768069208828 0.9181737195710612 0.9275973545302634 1:4 2:6 3:5 4:4 5:2 6:1 7:2 8:2 9:1 10:3 11:5 12:7 13:2 15:2 16:5 17:7 18:6 19:6 20:5 21:6 22:3 
-0 0 0 0 0 0 0 0 0 0 0 0 0 0 0 0 0.3156031421755717 1:4 2:6 3:4 4:4 5:2 6:2 7:2 8:2 9:2 10:2 11:6 12:5 13:2 14:1 15:5 16:6 17:7 18:5 19:6 20:6 21:3 
-0 0.1129354414643209 0.139194099744472 0.08025331320678543 0.1331003683733238 0.1057922477728296 0.09518549999568821 0.1381846433411453 0.06411104691855304 0.07121084545710177 0.1274120390335433 0.114293785411243 0.1185118339524742 0.1080332318218201 0.1372447829128341 0.01146951175150903 0 1:3 2:5 3:3 4:3 5:1 6:2 7:3 8:2 9:2 10:1 11:5 12:6 15:2 16:7 17:7 18:6 19:6 20:7 21:1 
-0 0.1937585401136488 0.05549914939510495 0 0.2261439501124108 0.1963580065727634 0.1558977440715286 0.2349271343439748 0.1732515620578887 0.157778937879307 0.2304554294793654 0.1961029550023216 0.2037781475924503 0.2027673287164735 0.2416470926572145 0.1581965005018617 0 1:3 2:6 3:4 4:5 5:1 6:2 7:3 8:3 9:3 10:3 11:6 12:7 13:1 14:4 15:7 16:9 17:7 18:7 19:8 20:3 
-0 0.04175990757532723 0 0 0.05392679238888845 0.08424091202962067 0.0241887697476451 0.055894759643963 0.03567523677548976 0.0182728249219735 0.05526703923763338 0.04522358087361138 0.04904745781940099 0.03421306945239758 0.04608533066912413 0.03415160644534127 0.4747531010387062 1:3 2:6 3:3 4:4 5:2 6:2 7:2 8:3 9:2 10:3 11:7 12:7 13:4 14:7 15:6 16:7 17:7 18:7 19:4 21:2 
-0 0 0 0.3524881032920643 0 0 0 0 0 0 0 0 0 0 0 0 0 1:3 2:5 3:3 4:4 5:1 6:3 7:3 8:3 9:2 10:3 11:5 12:7 13:1 14:4 15:7 16:6 17:5 18:7 19:8 20:4 
-0 0 0 0 0 0 0 0 0 0 0 0 0 0 0 0 0.9778240781333948 1:4 2:6 3:4 4:3 5:1 6:1 7:2 8:2 9:2 10:2 11:6 12:7 13:2 14:1 15:5 16:6 17:6 18:6 19:6 20:6 21:2 
-0 0 0 0.1170905323159747 0 0 0 0 0 0 0 0 0 0 0 0 0 1:2 2:5 3:4 4:4 5:1 6:2 7:2 8:2 9:4 10:2 11:6 12:4 15:5 16:7 17:6 18:6 19:6 20:6 21:2 
-0 0.06670070670358556 0 0 0.05948597710640574 0.06001581993683682 0.03704935426137471 0.06199867731016781 0.02598185337178872 0.00677947914456754 0.02836466007881863 0.04917525457762549 0.05409724193551139 0.1677573102303915 0.09356647160995139 0 0 1:3 2:5 3:2 4:1 5:1 6:2 7:1 8:2 9:3 10:3 11:5 12:5 14:2 15:5 16:7 17:6 18:6 19:6 20:1 
-0.1066287683891016 0.1834020373637665 0.4434560914338371 0.2781642506806983 0.1953791009257812 0.2002049920793458 0.1199425427872636 0.2023206484917583 0.2260347595007439 0.2095548224073047 0.2307325439103856 0.1655217190203115 0.1742888873753396 0.1355625463873966 0.288871018293524 0.2696023318246217 0 1:2 2:4 3:3 4:1 5:1 6:2 7:2 8:2 9:3 10:3 11:6 12:4 14:2 15:6 16:5 17:7 18:5 19:6 20:2 
-0.1120955560656889 0.05990894660911238 0 0 0.08083882693418612 0.06518364588575608 0.03994684148364888 0.08318164189384669 0.1631685859654611 0.0661438077880236 0.09053768170769458 0.06862610839350408 0.07244350777842423 0.07393542443472229 0.07634351714373173 0.09628364921949482 0.1526860793094322 1:3 2:4 3:2 4:2 5:2 6:1 7:3 8:2 9:2 10:2 11:7 12:6 13:2 14:2 15:4 16:6 17:5 18:5 19:9 20:3 
-0.1379572608387062 0.2634165221215384 0.2889675808439896 0.1585266537798927 0.3023166927678768 0.3121709626936972 0.2127881779726995 0.3134265324702122 0.1919129668350473 0.2139705360224995 0.3100012020851048 0.2628140296450778 0.2729386078856355 0.2628212683659724 0.3027730131559171 0.1396669168064614 0.2430135494730408 1:5 2:4 3:2 4:4 5:1 6:2 7:2 8:2 9:3 10:3 11:4 12:7 14:1 15:5 16:8 17:5 18:8 19:5 20:6 21:1 
-0 0 0.07544250749869731 0 0 0 0 0 0 0 0 0 0 0 0 0 0 1:3 2:5 3:4 4:3 5:1 6:3 7:1 8:2 9:3 10:2 11:6 12:6 15:4 16:7 17:7 18:8 19:5 20:7 21:1 
-0.2254579862204828 0.218975573005418 0.1541982125548922 0.05655644923942262 0.2594291064188452 0.3273665160031989 0.1833474020061992 0.2652059486101466 0.1831418613061829 0.1936559259541364 0.2703178449876608 0.2216005109466075 0.2306714188993191 0.2185676923178946 0.2701179027301314 0.1804792054897053 0.3487235818037591 1:4 2:6 3:3 4:4 5:1 6:1 7:4 8:3 9:3 10:2 11:6 12:6 13:4 14:8 15:7 16:7 17:6 18:8 19:3 
-0 0.04129337128509039 0 0 0.05801360921301088 0.04654996653639813 0.03360968791478801 0.05833921280895124 0 0.02050889890914943 0.0568283277098218 0.04915505449041684 0.05110661600930276 0.02257802227292178 0.02415812731127273 0.0143673331709667 0 1:3 2:5 3:1 4:2 5:1 6:2 8:2 9:3 10:2 11:6 12:6 13:1 14:3 15:4 16:6 17:6 18:5 19:7 20:1 
-0.3908431646047937 0.07219179834114824 0.04411204760051437 0.01955973935699472 0.08091946561628084 0.05548667337290696 0.05898410726077077 0.08216481913011264 0.04776778190862718 0.03836588034248544 0.09177107312353995 0.06775111416136791 0.07227023214438198 0.07119192914429061 0.08237523014930373 0.1659842429636406 0.9317271691551492 1:3 2:6 3:4 4:4 5:2 6:2 7:1 8:3 9:2 10:2 11:7 12:7 13:2 14:5 15:7 16:6 17:4 18:7 19:7 20:5 
-0 0 0 0 0 0 0 0 0 0 0 0 0 0 0 0 0.03826809854716101 1:5 2:5 3:4 4:4 6:2 7:2 8:2 9:1 10:3 11:6 12:7 13:1 14:1 15:5 16:8 17:6 18:6 19:6 20:6 21:2 
-0.8375487042813604 0 0 0 0 0.08528905622474962 0.06945458828121122 0 0.1124643477794952 0.007374870847655387 0.09854235442754758 0.02619780952966048 0.003519166615003217 0.1137914719337845 0.1690402579556699 0.3591518110271934 0.06332927999088689 1:3 2:5 3:3 4:4 5:2 6:1 7:2 8:2 9:2 10:2 11:5 12:3 14:1 15:4 16:6 17:6 18:5 19:4 20:5 21:3 
-0 0 0.01187378608233884 0 0 0.006733331299177571 0 0 0 0 0 0 0 0 0 0 0 1:1 2:5 3:3 4:3 5:2 6:2 7:2 8:2 9:3 10:2 11:5 12:8 13:1 14:4 15:7 16:6 17:7 18:4 19:7 20:1 21:1 
-0.863513898192239 0.4552988104967599 0.7256568436826304 0.6076665680098436 0.4750985397728308 0.5491612422911134 0.3908686283556638 0.4927967327325581 0.3763420894714679 0.4726417158110286 0.6092284042682928 0.4351447740077485 0.4294288087578077 0.4947969531953882 0.8654416355654867 0.7789092305998253 0.3412890931506028 1:2 2:4 3:4 4:4 5:2 6:2 7:1 8:2 9:2 10:3 11:3 12:5 13:1 14:5 15:7 16:6 17:5 18:3 19:4 20:3 
-0 0 0 0 0 0 0 0 0 0 0 0 0 0 0 0 1 1:4 2:6 3:3 4:3 5:2 6:2 7:2 8:2 9:2 10:3 11:6 12:7 13:2 14:1 15:5 16:6 17:7 18:7 19:6 20:6 21:2 
-0.09975384370117611 0.1300365482800084 0.1621408880616976 0.01441355479642174 0.1518177066549415 0.2737638128994236 0.1111185724730365 0.1570826542215433 0.1127781341773323 0.1620406909468097 0.1684276669686779 0.138210148601825 0.136779979149899 0.1281149605211604 0.1712955450725038 0.1159596408074374 0.2473580868822567 1:3 2:5 3:4 4:4 5:2 6:2 7:2 8:1 9:1 10:3 11:6 12:7 13:3 14:7 15:7 16:5 17:6 18:7 19:3 21:2 
-0 0.006578529308389716 0 0 0.02685599092468097 0.05565215964530471 0.013080961549771 0.02808233372316513 0.008802006459605974 0.1942827678865596 0.02093967389269794 0.02185573376019878 0.02368784066496626 0.004962983336946066 0.01586547210101716 0 0 1:3 2:5 3:1 4:2 5:1 6:2 7:2 8:2 9:3 10:3 11:6 12:7 13:1 14:4 15:7 16:7 17:7 18:6 19:5 
-0.3459275727802992 0 0 0 0 0 0 0 0 0 0 0 0 0 0 0 0 1:3 2:6 3:4 4:4 5:2 6:2 7:2 8:2 9:2 10:2 11:6 12:6 13:1 14:1 15:5 16:7 17:6 18:6 19:4 20:8 21:3 
-0.2009726838992161 0.08114837942588253 0.03440823579495456 0.083595245556234 0.1367173119186698 0.1282121752831212 0.08527262228555295 0.1416529956723866 0.08365190598603109 0.05882988704003535 0.1455208768633468 0.1173436976444114 0.1228253488967278 0.1089413372581081 0.1251367859260887 0.06083583401668964 0 1:1 2:5 3:3 4:4 5:1 6:2 7:2 8:3 9:3 10:1 11:6 12:6 13:1 14:3 15:8 16:4 17:6 18:6 19:7 20:2 
-0.04464060523956674 0 0 0 0 0 0 0 0 0 0 0 0 0 0 0 0 1:3 2:4 3:3 4:4 5:2 6:2 7:1 8:2 9:1 10:2 11:6 12:5 15:4 16:7 17:5 18:4 19:5 20:7 21:3 
-0.3638271183111936 0.326210131756918 0.4611699236889296 0.3264919437847727 0.3683514507469255 0.4078164323102186 0.2507694130306095 0.3801178609171212 0.263716905596369 0.2554465544787533 0.4104375088037297 0.3177619978755974 0.3311507866106618 0.3254611327437785 0.3729049765187493 0.3427982031636013 0.3130656312192813 1:2 2:6 3:6 4:4 5:2 6:2 7:1 8:2 9:2 10:3 11:6 12:6 13:5 14:7 15:7 16:7 17:4 18:7 19:4 20:1 
-0 0.03842959056116003 0.01416760611692026 0.08619245293027469 0.003178017443843141 0 0.02722866216080127 0.003115110926436599 0.01630752681440899 0 0.02578758084149976 0.00562405997271645 0.002897112828550762 0.03445417508569642 0 0.03383944421561517 0 1:2 2:5 3:3 4:2 5:1 6:2 7:2 8:2 9:3 10:2 11:4 12:5 14:2 15:6 16:4 17:7 18:6 19:6 20:2 
-0 0 0 0 0 0 0 0 0 0 0 0 0 0 0 0 0.06372394583659519 1:4 2:6 3:3 4:4 6:2 7:2 8:1 9:3 10:3 11:5 12:6 13:3 14:7 15:6 16:7 17:6 18:7 19:3 
-0 0 0 0 0 0 0 0 0 0 0 0 0 0 0 0 0.6592258202329374 1:3 2:5 3:1 4:1 5:2 6:2 7:1 8:2 9:3 10:2 11:6 12:6 13:1 14:3 15:4 16:6 17:6 18:6 19:5 20:3 
-0 0 0 0.03700067516715633 0 0 0 0 0 0 0 0 0 0 0 0 0 1:3 2:5 3:3 4:4 5:2 6:2 7:1 8:2 9:2 10:2 11:5 12:5 15:3 16:7 17:6 18:4 19:7 20:7 21:2 
-0.1149753742867388 0.09636932559282073 0.203272987987104 0.025271424491573 0.1197242199113995 0.2280498793346195 0.07565774437220552 0.1168122210117731 0.07149380332273698 0.09748904896077071 0.1322004515955418 0.09665098925862095 0.1018087605867983 0.109286953688457 0.120471487513799 0.1403092482338392 0 1:3 2:5 3:4 4:4 5:2 6:2 7:2 8:2 9:3 10:3 11:7 12:7 13:5 14:7 15:7 16:6 17:7 18:7 19:3 21:2 
-0.1664387706446709 0.0212915076168363 0.2270106332556899 0.6227283073638724 0.01094704858028139 0 0.03423385781389021 0.008120635476931991 0.01921237410225005 0 0.07354059192210827 0.01444831031953106 0.009870814913782786 0.01248116906324791 0.02239653141885138 0.141665568038323 0.2545559016265107 1:3 2:6 3:3 4:4 5:3 6:2 7:4 8:2 9:2 10:3 11:6 12:5 13:4 14:6 15:6 16:6 17:7 18:8 19:5 20:1 
-0 0 0 0 0 0 0 0 0 0.08426532499066317 0 0 0 0 0 0 0 1:3 2:4 3:3 4:4 7:1 8:2 9:2 10:2 11:5 12:7 13:1 14:4 15:6 16:5 17:6 18:4 19:5 20:2 
-0.0665563313588351 0.1391705167186534 0.3798177665259601 0.714756011633797 0.1678520733282851 0.1778954340671692 0.1314324655522232 0.1691197129877166 0.08914833323898831 0.1315662803203024 0.199658948763141 0.1473881998610517 0.1514835041623679 0.1556172258733421 0.1807623202170349 0.1065476606914342 0.05539362300332161 1:3 2:4 3:3 4:4 5:1 6:3 7:4 8:2 9:2 10:3 11:6 12:7 14:2 15:7 16:7 17:7 18:5 19:6 20:7 21:1 
-0.236037434366663 0.2884644684289108 0.2523228885237688 0.2551655976293603 0.3228521358779524 0.276159393180421 0.2231208601043125 0.3344357491708062 0.2319515428554106 0.2315063118959903 0.3518020502782513 0.2793767769807073 0.2912691627069466 0.3061651198700169 0.3474534402446163 0.2954543397994065 0.257338413908479 1:4 2:6 3:5 4:4 5:1 6:1 7:3 8:2 9:3 10:3 11:5 12:6 13:4 14:7 15:8 16:7 17:5 18:9 19:3 
-0 0 0 0 0 0 0 0 0 0 0 0 0 0 0 0 0.2743487348121987 1:4 2:5 3:4 4:4 5:2 6:2 7:2 8:1 9:1 11:6 12:7 14:1 15:4 16:6 17:5 18:6 19:6 20:7 21:3 
-0 0.07592815339525988 0.1248557230876104 0 0.09054337270473771 0.09565655897050969 0.06879220392618862 0.09320113640549525 0.07543114933997706 0.05883429657527767 0.09417749510605793 0.07764318612483702 0.08150412882682635 0.1138520093559488 0.1360167021126227 0.0877923805983203 0 1:4 2:5 3:5 4:2 5:2 6:1 7:2 8:2 9:2 10:2 11:5 12:5 13:2 15:2 16:7 17:6 18:6 19:6 20:5 21:3 
-0.3084382902102759 0.3029718470568277 0.3181354796067735 0.1589776015863043 0.3401683576109726 0.3528191137708697 0.229925752681254 0.3530211036012479 0.4003355465565972 0.3357294475381655 0.4044360156925276 0.2924019930470491 0.305495302870142 0.2986262400391905 0.3643525560156393 0.4906516604855981 0.1700341851507293 1:2 2:2 3:3 4:4 5:2 6:2 7:2 8:2 9:2 10:2 11:6 12:8 13:1 14:1 15:4 16:6 17:4 18:6 19:5 20:6 21:4 
-0.9192209770306572 0.2167345448655437 0.5085532043552612 0.6760752572646944 0.2099636999551952 0.2149947729035292 0.1473857985463976 0.2174041549711078 0.262876126336644 0.1061988754642297 0.2895392168577512 0.1835923676069821 0.1945466282131702 0.1629731127923895 0.2179761919041314 0.4461873609765873 0.0310521126892838 1:3 2:4 3:4 4:4 5:1 6:2 7:2 8:1 9:2 10:3 11:5 12:5 14:1 15:5 16:6 17:4 18:4 19:6 20:8 21:2 
-0 0 0.1725156977673475 0.2824345090099577 0 0 0 0 0 0 0 0 0 0 0 0.05892044254925179 0 1:3 2:4 3:3 4:2 5:2 6:2 7:3 8:3 9:3 10:3 11:6 12:5 13:2 14:6 15:6 16:7 17:6 18:8 19:4 
-0 0 0.2937551042634596 0.2159970677303444 0 0 0 0 0 0 0 0 0 0 0 0 0 1:3 2:5 3:4 4:5 5:3 6:2 7:2 8:2 9:3 10:2 11:5 12:5 14:3 15:8 16:7 17:6 18:7 19:7 20:3 
-0 0 0 0 0 0 0 0 0 0 0 0 0 0 0 0 0.1809550968344593 1:3 2:6 3:3 4:4 5:2 6:2 7:1 8:2 9:2 10:2 11:5 12:7 14:1 15:5 16:7 17:6 18:4 19:6 20:7 21:3 
-0 0 0 0 0 0.01308781713563943 0 0 0 0 0 0 0 0 0 0 0.1731159630796824 1:4 2:5 3:4 4:2 5:1 6:2 7:2 8:3 9:4 10:3 11:6 12:7 13:1 14:3 15:7 16:8 17:7 18:8 19:7 20:2 
-0 0.04529628041942326 0 0.1228998390323376 0.05292554711595934 0.04441321750813241 0.0073192912544953 0.05557150308299504 0 0.008901915931940873 0.08683861560478351 0.0436603804215571 0.04662648322053238 0.01733641692859306 0 0.125714784626425 0 1:3 2:5 3:5 4:5 5:2 6:2 7:1 8:2 9:3 10:3 11:5 12:4 14:1 15:4 16:7 17:8 18:6 19:6 20:5 21:3 
-0 0 0 0.07847943519023852 0 0 0 0 0 0 0 0 0 0 0 0 0.4705317199695195 1:4 2:6 3:2 4:1 5:1 6:2 7:2 8:3 9:2 10:3 11:6 12:6 13:1 14:3 15:5 16:7 17:5 18:7 19:8 20:2 
-0 0.02553479068036858 0 0 0.02058081919884332 0.2331076124167114 0.0129194485263835 0.01943663176685869 0.02234956866305587 0.02330653436068231 0.02637493793881231 0.01712578585803077 0.01775320959118962 0.0171109672797693 0.02141732642761509 0 0.5097414576571323 1:3 2:6 3:3 4:4 5:2 6:1 7:2 8:2 9:2 10:2 11:8 12:7 13:1 14:4 15:7 16:6 17:5 18:5 19:7 20:5 22:2 
-0 0.02765554623866369 0.09768324239838538 0.9124539647715481 0 0 0.02362855256063328 0 0 0 0.05654694613322885 0 0 0.01380205737703581 0.1192566655768284 0.5833309426072828 0 1:3 2:5 3:3 4:4 5:2 6:2 7:2 8:2 9:3 10:3 11:3 12:4 14:1 15:4 16:7 17:6 18:6 19:4 20:5 21:3 
-0 0 0 0 0 0 0 0 0 0 0 0 0 0 0 0 0.1896915057111596 1:4 2:5 3:3 4:4 5:1 6:2 7:2 8:2 9:2 10:2 11:7 12:7 13:2 14:2 15:5 16:7 17:6 18:6 19:6 20:6 21:1 
-0.1183826308898444 0.1521778305690869 0.1715469757568195 0 0.1738208708208648 0.1372673679148526 0.1246205702255071 0.1805835332627359 0.08786012173153321 0.09675034594026929 0.1835491552533554 0.1512335509442282 0.1578136914639441 0.1617987433912114 0.1756977748996907 0.08225378744004935 0.3110118751808678 1:4 2:5 3:3 4:4 5:2 6:2 7:2 8:1 10:1 11:6 12:7 13:1 14:3 15:6 16:4 17:6 18:6 19:8 20:3 
-0.3019326407148294 0.1889069552833806 0.3608589658606754 0.3546606866175273 0.2139481928910554 0.2681762883309937 0.1394034790302035 0.2162903927252984 0.1600648671228228 0.1069266233260697 0.242791933634739 0.1818192974531056 0.1903915877131255 0.1858010616181713 0.1982942239552642 0.2118059324411679 0.1172232196895442 1:3 2:6 3:5 4:4 5:2 6:2 7:2 8:2 9:2 10:4 11:6 12:7 13:1 14:6 15:8 16:7 17:6 18:5 19:8 20:3 21:1 
-0 0 0 0 0 0 0 0 0 0 0 0 0 0 0 0.01633962601637233 0 1:3 2:6 3:4 4:4 5:2 6:2 7:1 8:3 9:2 10:2 11:5 12:5 13:3 14:7 15:5 16:6 17:6 18:8 19:4 
-0 0 0 0 0 0 0 0 0 0 0 0 0 0 0 0 0.1485163806341534 1:4 2:5 3:3 4:4 5:3 6:2 7:2 8:2 9:2 10:3 11:6 12:7 13:1 14:4 15:8 16:7 17:6 18:5 19:8 20:3 21:1 
-0 0.1047464801931412 0 0 0.1234380317270154 0.09829061968968056 0.08407807400634083 0.1281453576706137 0.06560428068771348 0.07733294521997035 0.1073486280951205 0.1058903951436662 0.1099249093176304 0.1184213297462496 0.1092470512455658 0 0.005145935237833721 1:3 2:5 3:3 4:4 5:1 6:2 7:1 9:1 10:3 11:6 12:7 14:2 15:3 16:7 17:5 18:4 19:6 20:7 21:2 
-0.357437781087835 0.36576684466773 0.4361136287222702 0.3062436564005469 0.4157587265939613 0.4266875334930827 0.2857870615721774 0.4267528803810564 0.2558588942209516 0.2996093484411042 0.4785218099983832 0.357987656115163 0.3724569122082716 0.3771709045789398 0.4363494830537803 0.4684113704062519 0.6470793482420041 1:3 2:4 3:4 4:3 5:2 6:3 7:2 8:2 9:3 10:2 11:8 12:8 13:1 14:5 15:5 16:5 17:8 18:6 19:7 20:5 22:2 
-0 0 0 0 0 0 0 0 0 0 0 0 0 0 0 0.01821366829794101 0 1:4 2:3 3:2 4:4 5:1 6:2 7:2 8:2 9:2 10:4 11:5 12:7 14:1 15:4 16:7 17:7 18:5 19:7 20:4 21:2 22:1 
-0.09443926783428482 0.1459468671620406 0.1376597211495715 0.2330876248102444 0.1577957211250719 0.1538081164487236 0.1312489217410676 0.1641401219814659 0.09816232969846457 0.0520240722060694 0.1703608457546065 0.1406990005045732 0.1426897100544255 0.200317543795304 0.1338097769493241 0.1203067794961634 0.08087201002139968 1:3 2:6 3:2 4:4 5:1 6:2 7:2 8:3 9:3 10:3 11:4 12:6 13:3 14:7 15:7 16:7 17:7 18:5 19:3 
-0.05250965985022633 0.1660388308143512 0.2527230535447179 0 0.2159933064668506 0.2423215280206011 0.1488371740639569 0.2221533793264097 0.1195239164577623 0.1573963073513442 0.2242426640065538 0.1874080883123008 0.1933383956257038 0.1868086977751948 0.2197130865569779 0.1475504897721925 0.1282814887029718 1:4 2:4 3:2 4:1 5:2 6:2 7:2 8:2 9:1 10:3 11:5 12:7 13:1 14:2 15:6 16:6 17:6 18:5 19:8 20:1 
-0 0 0 0 0 0 0 0 0 0 0 0 0 0 0 0 0.2079312028162169 1:4 2:6 3:4 4:4 5:1 6:2 7:2 8:2 9:3 10:3 11:6 12:6 13:2 15:2 16:6 17:7 18:7 19:6 20:6 21:5 22:2 
-0 0.07768561629126058 0.309963843082004 0 0.1020945765595868 0.099010137365483 0.05320877249079059 0.1049584481979637 0.04186516182629606 0.1294338444941187 0.07123325262116698 0.08179561394407457 0.08990347288921735 0.07673242950454512 0.1686097238941995 0.07879590212113539 0 1:3 2:4 3:4 4:4 5:1 6:2 7:1 8:2 9:2 10:3 11:5 12:4 13:1 15:4 16:7 17:7 18:4 19:4 20:6 21:2 
-0 0.09653494769088644 0 0 0.1055729100298847 0.0940689121610508 0.05922628993738398 0.1103289988053799 0.07730473485237849 0.1398382701105144 0.09238764056210985 0.08924277110302629 0.09519656890395424 0.09589860165924946 0.08408260472014924 0 0.1419775304809459 1:2 2:6 3:3 4:3 5:1 6:2 8:2 9:1 10:3 11:7 12:7 13:2 14:4 15:7 16:6 17:4 18:5 19:7 20:2 
-0 0.0149371487168379 0.04560113851935729 0 0.02235585839867367 0.01693923659088403 0.00201199175477756 0.02433306431719532 0 0.04192328350088313 0 0.01678394260514895 0.01917827718888084 0.007673794384658188 0 0 0 1:2 2:5 3:4 4:3 5:1 6:1 7:2 8:2 9:1 10:2 11:6 12:7 14:1 15:5 16:7 17:5 18:6 19:4 20:7 21:1 
-0 0 0 0.2793207782356849 0 0 0 0 0 0 0 0 0 0 0 0 0 1:3 2:4 3:4 4:3 5:1 6:2 7:2 8:3 9:3 10:3 11:6 12:5 15:4 16:8 17:6 18:7 19:6 20:7 21:1 
-0 0 0 0 0 0 0 0 0.07962122265472552 0 0 0 0 0 0 0 0 1:1 2:3 3:2 4:3 5:1 6:2 7:2 8:2 9:3 10:3 11:5 12:7 13:1 14:4 15:4 16:5 17:6 18:5 19:7 20:2 
-0 0.06114790595413089 0.08351233371823145 0 0.05072336080023582 0 0.02383669510335969 0.05641408541616979 0.05189326717771349 0 0.05075709244348944 0.04252747766490584 0.04881971468036862 0.02099363551960448 0.02849827998161256 0.04031992704645124 0 1:3 2:4 3:4 4:4 5:1 6:2 7:2 8:2 9:3 10:3 11:6 12:6 13:5 14:6 15:6 16:6 17:7 18:8 19:2 
-0.0858562939217544 0 0.1781646938613075 0 0 0 0 0 0 0 0 0 0 0 0 0 0 1:3 2:5 3:4 4:4 5:2 6:2 7:2 8:1 9:3 10:3 11:4 12:6 14:1 15:6 16:7 17:6 18:4 19:6 20:7 21:2 
-0 0 0 0 0 0 0 0 0 0 0 0 0 0 0 0 0.3624565644858084 1:4 2:6 3:3 4:4 5:2 6:2 7:2 8:2 9:3 10:3 11:6 12:7 13:2 14:4 15:7 16:7 17:7 18:6 19:7 20:4 
-0.2995118458362026 0.1842135303946074 0.2409083173130066 0.2082658412270306 0.1936527159847198 0.2119903739681338 0.1447922062290604 0.2009341973676299 0.4534084684550401 0.1845335133551253 0.2475871306181249 0.1686809268938287 0.1749973454244821 0.1719389900800284 0.2260168491722309 0.3236171036305839 0.157849910870401 1:3 2:3 3:2 4:2 5:1 6:3 7:1 8:2 9:3 10:1 11:6 12:7 13:1 14:4 15:3 16:5 17:5 18:6 19:7 20:3 
-0.4635928101115552 0.3221264204947601 0.6784915309671982 0.8860426690620441 0.3390261016643241 0.3502437363381431 0.2382111895971422 0.3495887270880846 0.2415943732334826 0.2119228469538141 0.4021199978160842 0.2964015990290912 0.3055202464100497 0.3118371190079438 0.3943050628647696 0.4357726497810296 0.240087015168069 1:3 2:6 3:4 4:4 5:2 6:2 7:2 8:3 9:3 10:3 11:6 12:3 13:3 14:7 15:8 16:5 17:7 18:7 19:4 
-0.01802055015981287 0 0 0 0 0 0 0 0 0 0 0 0 0 0 0 0 1:3 2:4 3:4 4:4 5:2 6:2 7:2 8:2 9:3 10:2 11:6 12:5 13:1 14:5 15:6 16:5 17:6 18:6 19:7 20:3 
-0.2867730810995898 0.3477285804497839 0.1923082463477115 0.737814326474269 0.2138058201284825 0.2177864089818538 0.1408637784001458 0.2203304330351818 0.2067485737175296 0.1191564076734491 0.3262314739192166 0.1842131765337185 0.1924612279520843 0.1805276312193695 0.2212740185561085 0.5768943155328524 0 1:3 2:3 3:3 4:4 5:1 6:2 7:2 8:3 9:4 10:4 11:5 12:5 13:2 14:2 15:6 16:5 17:7 18:7 19:8 20:2 
-0.3223878067974459 0.03710226101152689 0.1865709811567509 1 0.05432710023338265 0.05665211418288366 0.05767618968729313 0.0563902646124495 0.004627916029425307 0 0.08851917232870361 0.05175091046406848 0.05020104933111488 0.06825638149341345 0.06545471023597249 0.06042717951498404 0 1:3 2:5 3:3 4:4 5:1 6:2 7:2 8:2 9:2 10:3 11:6 12:3 14:3 15:7 16:7 17:5 18:5 19:7 20:2 
-0 0.01343837605380554 0 0 0.01371910101960995 0 0 0.01396288485111851 0.026335457195352 0 0.004905262597188078 0.009239793953932447 0.01154852697245717 0.06605699991626909 0 0 0 1:4 2:6 3:2 4:4 5:1 6:2 7:1 8:2 9:3 10:3 11:4 12:6 13:2 15:3 16:6 17:7 18:7 19:5 20:6 21:2 
-0.1344394942164777 0.1312641035745553 0.10061775324977 0 0.1512540254670198 0.1244993796578823 0.08463517996219512 0.1574271041739392 0.06891905664596215 0.3000566865128164 0.1691257231585221 0.124442676666577 0.1359916757553383 0.1139290016731185 0.09371617195276233 0.2152973180367232 0 1:1 2:3 3:4 4:4 5:2 6:2 7:2 8:2 9:3 10:2 11:5 12:7 13:1 14:4 15:7 16:7 17:5 18:3 19:7 20:3 
-0.330718191086322 0.3841094343587966 0.465020217347692 0.9729760025815017 0.411218726954103 0.403748197449449 0.2821558242949461 0.4237222508253967 0.2996789346349923 0.3059965430841991 0.4585309950288564 0.3517690333125821 0.3715889729071155 0.3793758178027667 0.4018468917877706 0.382741182020946 0.2070929740437217 1:5 2:5 3:3 4:4 5:1 6:2 7:2 8:2 9:3 10:3 11:6 12:3 13:1 15:3 16:6 17:7 18:6 19:6 20:8 21:2 
-0.3131485814805433 0.3454707735243426 0.4190314298712429 0.3469092963494156 0.3916806223229699 0.4864999902683834 0.2632534142800804 0.3966602129885469 0.2473495915371441 0.2622311542352698 0.4921913900630308 0.3340986398233231 0.3479786373017953 0.3473316029694956 0.4160926390027219 0.6435289625129109 0.4077776638327101 1:3 2:4 3:4 4:4 5:3 6:3 7:2 8:2 9:3 10:3 11:7 12:8 14:2 15:5 16:7 17:5 18:8 19:6 20:7 21:3 22:1 23:2 
-0 0 0 0 0 0 0 0 0 0 0 0 0 0 0 0 0.1098409620005229 1:4 2:6 3:4 4:3 5:1 6:1 7:3 8:2 9:3 10:3 11:6 12:7 13:1 14:4 15:7 16:7 17:5 18:7 19:8 20:3 21:1 
-0 0 0 0 0 0 0 0 0 0 0 0 0 0 0 0 0.07807152443237154 1:3 2:5 3:3 4:5 5:1 6:1 7:2 8:2 9:3 10:3 11:6 12:8 13:1 14:4 15:7 16:7 17:7 18:5 19:5 20:4 21:2 
-0 0 0 0 0 0 0 0 0 0 0 0 0 0 0 0 0.4686914356342691 1:4 2:6 3:1 4:4 5:2 6:2 7:3 8:3 9:2 10:2 11:6 12:7 13:1 14:4 15:7 16:6 17:6 18:7 19:8 20:3 
-0.233489664817262 0.3181000802561695 0.4071615952140297 0.3969581838523224 0.3662913430758672 0.3663960684911714 0.2487920674409391 0.3772063470554228 0.251912023801593 0.2701227295492772 0.3963806103070082 0.3160146969388211 0.3285420390380869 0.3267045380725701 0.3867538884469695 0.2862753570434338 0 1:3 2:4 3:3 4:4 5:2 6:2 7:4 8:3 9:2 10:2 11:6 12:7 13:1 14:4 15:7 16:7 17:5 18:9 19:8 20:1 
-0.4087029448520457 0.3589002335168819 0.4020705449284757 0.4676668523947047 0.3960222391816796 0.4073334969810648 0.2767751209564249 0.4081187531902162 0.2154060577470893 0.2566109381213502 0.4339294282081197 0.3423827881845551 0.3568729032276676 0.3603672847067286 0.4222784963452337 0.384501069291382 0.4387174950789564 1:4 2:5 3:1 4:2 5:2 6:2 7:3 8:2 9:5 10:2 11:6 12:7 13:2 14:4 15:5 16:6 17:7 18:6 19:9 20:2 
-0.6025048911369556 0.5659849257528234 0.8551376425524223 1 0.5969646136347886 0.5933710822199332 0.43951568742866 0.6163758933230808 0.4176659244538078 0.4467948073594413 0.7158670202625775 0.5280635353537462 0.5430430076252724 0.5545255979329962 0.6392017105596866 0.5468184674491345 0.3726079767111636 1:3 2:5 3:3 4:4 5:2 6:4 7:2 8:1 9:3 10:2 11:5 12:3 15:3 16:7 17:5 18:8 19:5 20:5 21:4 
-0 0 0 0 0 0 0 0 0 0 0 0 0 0 0 0 0.3004524791725012 1:4 2:5 3:2 4:4 5:2 6:2 7:2 8:3 9:3 10:3 11:6 12:7 14:1 15:4 16:7 17:7 18:7 19:7 20:7 21:3 
-0.07453217270011199 0 0 0 0 0 0 0 0 0 0 0 0 0 0 0 0 1:3 2:4 3:4 4:4 5:3 6:2 7:2 8:2 9:3 10:2 11:6 12:6 14:1 15:5 16:7 17:4 18:7 19:6 20:7 21:3 22:1 
-0.2629494643786573 0.05973234151328107 0.4020122350144886 0.5490060972285549 0.04467035437537534 0.06063960419828805 0.08211473520233215 0.04647570183030453 0.02469316054222538 0.02875964093139632 0.07664539695536332 0.04283587528801153 0.04188892352571297 0.02970595932821966 0.09161541307727217 0.1712470271079261 0.1243932770613762 1:3 2:5 3:3 4:1 5:2 6:2 7:3 8:1 9:2 10:3 11:6 12:5 13:1 14:3 15:6 16:7 17:4 18:5 19:8 20:2 
-0.01213172019895887 0 0 0 0 0 0 0 0 0 0 0 0 0 0 0.2908920679849035 0 1:3 2:4 3:4 4:4 5:4 6:2 7:2 8:2 9:3 10:3 11:6 12:7 14:2 15:5 16:7 17:7 18:7 19:6 20:7 21:3 
-0 0 0 0.397759468109995 0 0 0 0 0 0 0 0 0 0 0 0 0 1:3 2:6 3:5 4:4 6:2 7:3 8:3 9:3 10:3 11:6 12:6 13:1 14:5 15:7 16:8 17:6 18:8 19:6 20:3 
-0 0 0 0.1544874986381719 0 0 0 0 0 0 0 0 0 0 0 0 0 1:3 2:6 3:3 4:3 5:1 6:2 7:1 8:3 9:3 10:3 11:4 12:5 13:1 14:4 15:7 16:7 17:6 18:5 19:4 20:3 
-0.602499862118408 0.6026705023703607 0.7367613398888373 0.5897404950095481 0.6739896224470533 0.7937907568278206 0.4813669509661757 0.6956304955371981 0.5253869294724701 0.8832677919019916 0.7473819004439937 0.5878793523201945 0.6064697223272588 0.6552368151140819 0.8435604283835597 0.6665078678105428 0.5112631633582563 1:3 2:4 3:3 4:4 5:1 6:1 7:1 8:2 9:2 10:2 11:6 12:4 13:5 14:6 15:6 16:6 17:5 18:4 19:1 
-0.08368218261802687 0.2051927313776458 0.1288944507308472 0 0.2318103225009038 0.2695376696535407 0.1644524158793156 0.2382014574396359 0.1600820700894932 0.1709838446316586 0.2458507233623668 0.2011987136241905 0.2095741121785662 0.1941314198677613 0.2395542116633893 0.08293372937627476 0.9352755469896707 1:5 2:5 3:3 4:4 5:1 6:2 7:2 8:1 9:2 10:2 11:7 12:7 13:2 14:1 15:3 16:7 17:7 18:5 19:5 20:8 21:3 
-0 0 0 0 0 0 0 0 0 0 0 0 0 0 0 0 0.2924802801229842 1:3 2:5 3:3 4:2 5:2 6:2 7:2 8:2 9:3 10:3 11:8 12:8 13:1 14:3 15:6 16:7 17:7 18:6 19:7 20:4 22:2 
-0.2003725602955442 -0.2153185782137226 0.2380337673173044 0.23457221627439 0.2292828060661754 0.2329395618401301 0.158299444709122 0.2358680908604604 0.2202423566350563 0.1700702169122065 0.2558695943244133 0.1978619552775504 0.2045356933537469 0.2061458076537541 0.2362986032218815 0.2979975033785161 0.1882826507230538 1:2 2:2 3:2 4:3 5:2 6:3 7:2 8:1 9:8 10:7 11:3 12:2 14:2 15:2 16:3 17:4 18:5 19:8 20:8 21:3 23:2 
-0 -0 0 0 0 0 0 0 0 0 0 0 0 0 0 0.02055850561138155 0 1:1 2:3 3:2 4:3 5:5 6:4 7:3 8:3 9:7 10:7 11:1 14:3 15:4 16:5 17:4 18:5 19:9 20:7 21:2 
-0.2559633444712205 -0.2401633530207305 0.2730511291474185 0.2478804948778949 0.2743748452156956 0.2777922974223716 0.1827067868176931 0.2815830447486007 0.3008357818333541 0.2032191173367658 0.3211300993007539 0.2352302845447581 0.2414259447257029 0.2468276742384176 0.3017450605912552 0.3365396657994127 0.2223677154519491 1:2 2:2 3:2 4:3 5:3 6:3 7:1 8:3 9:5 10:7 11:1 14:3 15:3 16:2 17:4 18:3 19:7 20:8 21:2 
-0 -0 0 0 0 0 0 0 0 0 0 0 0 0 0 0.09454541559583411 0 1:4 2:2 3:2 4:3 5:4 6:4 7:3 8:3 9:6 10:6 11:1 13:2 14:4 15:4 16:4 17:5 18:9 19:7 20:2 21:1 
-0.005944063224934791 -0 0 0.01722613102892913 0 0 0 0 0 0 0 0 0 0 0 0.003320028509820383 0 1:3 2:2 3:2 4:3 5:2 6:4 7:2 8:4 9:8 10:7 11:1 13:1 14:3 15:4 16:4 17:4 18:4 19:6 20:9 21:3 
-0.1866379165914346 -0.1675781049417869 0.2032637338240836 0.1905897844989645 0.1845133370044985 0.1883509050861286 0.135815456209373 0.1899504551231927 0.1253071284171242 0.1367314620736375 0.1966088844976793 0.1600281179216686 0.1676799549559314 0.1670918273576989 0.1989577016294126 0.1477871424880415 0.15143020080946 1:2 2:3 3:1 4:1 5:2 6:4 7:3 8:2 9:7 10:7 11:2 13:3 14:5 15:4 16:4 17:2 18:6 19:8 20:2 
-0.2500219921955638 -0.2820685467248301 0.3247599378017207 0.2447518078357234 0.3219133539782792 0.3265661494394401 0.2224660963368016 0.3334622668919042 0.2125980093448114 0.2389232632434897 0.3412362481753374 0.2771194555798316 0.288564223216567 0.2924134296425311 0.3288487725860201 0.2167666419373318 0.2622736139523468 1:2 2:2 3:2 4:3 5:3 6:4 7:3 8:4 9:9 10:9 11:1 13:3 14:4 15:4 16:4 17:4 18:8 19:8 20:4 22:3 
-0.3446549592930133 -0.2922009617552853 0.366808539937991 0.3508994725205734 0.3324064695382623 0.3375520541567038 0.2476296494315521 0.345140620015129 0.2236584126337856 0.2463377593963795 0.3901453628181504 0.2926027003785004 0.3134688436098502 0.2995828836437721 0.3854204546607441 0.3357513286619168 0.2709051914580521 1:3 2:3 3:1 4:2 5:4 6:5 7:3 8:3 9:5 10:6 13:1 14:2 15:4 16:4 17:3 18:3 19:7 20:8 21:3 
-0.08101609820361627 -0.05870474498885882 0.06071467650591357 0.05791945430162963 0.07230613135150372 0.07314105195498273 0.04908186775142309 0.07631693526304627 0.1217614050423153 0.05310700619907446 0.1089393953102455 0.06147447665518314 0.06612530896141458 0.06415420713325137 0.07543137438298989 0.1311991496169444 0.05774732822839432 1:2 2:1 3:2 4:3 5:2 6:3 7:3 8:2 9:8 10:7 11:2 12:2 14:2 15:4 16:3 17:2 18:5 19:8 20:7 21:4 23:2 
-0 -0 0 0.01639193094717896 0 0 0 0 0 0 0 0 0 0 0 0.02583096287817495 0 1:1 2:3 3:2 4:3 5:2 6:4 7:3 8:4 9:8 10:6 11:2 12:1 13:3 14:4 15:5 16:4 17:3 18:8 19:8 20:2 22:2 
-0.3417793178598187 -0.3548623231093564 0.4150429615342673 0.3670962843511639 0.4195934708195356 0.4252202820601639 0.28395855081492 0.4332400848578999 0.2887204830358145 0.3097909928228154 0.4823876270727402 0.3594445352043622 0.3756415532790093 0.3765409582531544 0.3996300671031982 0.3476240809425864 0.3399105660134881 1:2 2:3 3:2 4:1 5:2 6:3 7:2 8:1 9:8 10:8 11:2 13:2 14:4 15:4 16:3 17:4 18:4 19:7 20:3 22:3 
-0 -0 0.003255994066362053 0 0.01382815787675823 0.01280516689288825 0.002563490642204433 0.01424984702335923 0.01398471820507657 0.009806581757444425 0 0.01103354591638141 0.01003914964516251 0.009149506171437392 0.0102670971693534 0 0.009989402251153683 1:2 2:3 3:2 4:1 5:1 6:3 7:2 8:3 9:7 10:7 11:1 13:3 14:3 15:3 16:2 17:3 18:7 19:8 20:3 
-0.2203061459634893 -0.1786505614990766 0.2010923243071714 0.180051948029021 0.2053491534482291 0.208132465559161 0.1394454082410523 0.2114452054258568 0.1641567570116176 0.1513827074997193 0.2281711556262404 0.175163812300688 0.1818745684151793 0.1854550888684219 0.2074178368087778 0.2888990288343847 0.1670715624557623 1:2 2:2 3:1 4:3 5:4 6:3 7:1 8:3 9:8 10:6 11:1 14:3 15:3 16:4 17:4 18:4 19:5 20:8 21:3 
-0.01541178941992349 -0.01532648002699559 0.01147542647316068 0.04172205034659298 0.01417296949741478 0.0147189002507786 0.01008126791138446 0.01515697383495792 0.02523306945735235 0.01043247981530548 0.1359599654386781 0.01253687467188041 0.01248747507781178 0.01095848744350786 0.01462077807207276 0 0.01158770272415385 1:1 2:2 3:2 4:3 5:2 6:4 7:3 8:4 9:8 10:6 11:2 12:3 13:3 14:4 15:4 16:3 17:6 18:8 19:7 20:3 22:2 
-0 -0 0 0 0 0 0 0 0 0 0 0 0 0 0 0.1263461351388483 0 1:2 2:2 3:3 4:2 5:4 6:4 7:3 8:3 9:7 10:6 11:2 12:1 13:1 14:4 15:3 16:4 17:6 18:7 19:7 20:5 22:2 
-0.02539810426173486 -0.02953943664335365 0.01871281328281042 0.03223125929659355 0.03438327653517469 0.03576410443442356 0.03033038949918994 0.03634898843080903 0.03235751168052566 0.02797030065821727 0.01113141669826894 0.0303172265769303 0.03073963277242956 0.03146596085890122 0.1447873355492137 0 0.02708106936640248 1:2 2:2 3:2 4:2 5:1 6:3 7:2 8:2 9:7 10:6 11:1 13:2 14:5 15:4 16:4 17:4 18:4 19:5 20:2 
-0 -0.02383287760446346 0.02622003584320187 0 0.03352825511484645 0.0331463757583818 0.01597674376774423 0.03415959477431625 0 0.02456643228215485 0.004412023540479935 0.02661451870455477 0.02759878675562533 0.02824836605342871 0.02211132006202461 0 0.02649069120260333 1:3 2:3 3:2 4:2 5:4 6:4 7:3 8:3 9:8 10:8 11:1 13:2 14:3 15:4 16:4 17:4 18:4 19:9 20:8 21:3 
-0.2670411624217433 -0.2666889584125237 0.3055196869842556 0.2736294764976846 0.3096823131105493 0.3130744199452632 0.2071601390637329 0.318113090225689 0.2050834240064846 0.2295755764959017 0.3125241452798123 0.2646234114196099 0.2698100508888496 0.2759310206255939 0.3019520792198356 0.2022705165731719 0.2498622617105318 1:2 2:3 3:2 4:2 5:1 6:3 7:3 8:2 9:8 10:6 11:1 13:1 14:2 15:4 16:4 17:1 18:3 19:8 20:8 21:2 
-0.006237931082294748 -0.02814164066886884 0 0 0 0 0 0 0.02566004922530636 0 0.05039994060871237 0 0 0 0.00210514727878644 0.1927210432961445 0 1:2 2:2 3:3 4:3 5:2 6:2 7:3 8:2 9:8 10:7 11:2 12:3 13:2 14:4 15:4 16:4 17:6 18:7 19:6 20:4 22:2 
-0.1357192292208294 -0.04825527089650686 0.06062880230536162 0.166419637226506 0.04871872215181448 0.04977342028843944 0.03387791040695708 0.05010981737646051 0.07012835194699592 0.03678665491747458 0.1464902664004872 0.0422708252495781 0.04628614005403154 0.04331697033842864 0.07364434155655612 0.232289622531335 0.03969695689954263 1:2 2:2 3:2 4:3 5:3 6:5 7:3 8:4 9:7 10:7 11:3 12:1 13:3 14:4 15:5 16:3 17:4 18:8 19:9 20:4 22:2 
-0 -0 0 0 0 0 0 0 0 0 0 0 0 0 0 0.06279784323858156 0 1:2 2:3 3:2 4:3 5:3 6:4 7:3 8:2 9:5 10:4 11:1 13:1 14:4 15:3 16:4 17:4 18:8 19:6 20:2 
-0 -0 0 0 0.004760890623803973 0.004795513071082977 0.002118016839667192 0.004293390153328125 0 0.003638966591660614 0 0.003727126280713204 0.004458291078123353 0.002256193195906429 0 0 0.00316313406516131 1:2 2:1 3:2 4:3 5:2 6:4 7:4 8:2 9:8 10:8 11:2 12:1 13:1 14:4 15:4 16:3 17:7 18:8 19:7 20:3 22:2 
-0.2460766805666224 -0.2481539251477873 0.2901820174668386 0.2569819837476295 0.2924798431232938 0.2962418652832219 0.2016163104926609 0.3012541859556486 0.1853882693257113 0.2164443563768926 0.329476418722194 0.250824438094447 0.2622162209339039 0.2633037150725858 0.307588453185855 0.2145131581509372 0.2365591013411878 1:1 2:3 3:1 4:2 5:4 6:4 7:3 8:3 9:9 10:8 11:1 12:2 14:3 15:4 16:4 17:4 18:6 19:9 20:6 21:3 23:2 
-0 -0 0 0.0257517022579804 0 0 0 0 0 0 0 0 0 0 0 0 0 1:2 2:3 3:2 4:3 5:2 6:4 7:4 8:2 9:7 10:7 11:1 12:2 13:2 14:4 15:4 16:6 17:5 18:8 19:8 20:2 
-0 -0.01262965153213944 0.003635009899088481 0.02130656894956088 0.01722074775426966 0.01742746989466037 0.009023280663159383 0.01868235476599728 0 0.0130864549064188 0 0.01293733903439675 0.01270115672300605 0.01635910944123434 0 0 0.01271021251848561 1:1 2:2 3:2 4:3 5:3 6:4 7:4 8:2 9:8 10:6 11:1 14:1 15:4 16:4 17:4 18:5 19:7 20:9 21:2 
-0.4637140177195639 -0.5075530107848872 0.5371177716071114 0.4978119026034247 0.5314433782272452 0.5381970828397826 0.3644328853670531 0.5484163056494252 0.3726839126815144 0.3935328438253752 0.5897176067060937 0.4569122582756037 0.4764204947280878 0.488950992642796 0.5553039224205314 0.4666211846148846 0.4324964072377028 1:2 2:3 3:3 4:4 5:2 6:3 7:1 8:1 9:7 10:5 11:2 12:1 13:2 14:1 15:2 16:4 17:5 18:9 19:8 20:3 
-0.2210799545660703 -0.2278171772561256 0.1975788971672791 0.2352222835863089 0.1529082221327703 0.1584713171570926 0.1054677926472447 0.1585318741038824 0.1266234116927394 0.1144538107011005 0.2240352287746832 0.1316997241038431 0.1386063861040303 0.138273776472493 0.1327821417278761 0.6693868325805825 0.1331757462771926 1:2 2:3 3:2 4:3 5:4 6:2 7:2 8:3 9:7 10:6 11:1 12:3 13:3 14:4 15:4 16:5 17:6 18:6 19:7 20:2 21:1 
-0.07475420070508003 -0.05269611843013757 0.09409978063540686 0.1784640547632824 0.07190768499593 0.07243064902659416 0.05093383624047998 0.07400840634581612 0.02561694956323118 0.05301036286416679 0.1037475514027584 0.06323246957972023 0.06557235219714913 0.06484142715555061 0.07413414361348657 0.03933960670770907 0.05765349568502044 1:2 2:4 3:3 4:3 5:4 6:4 7:4 8:2 9:8 10:7 11:2 12:1 13:2 14:4 15:4 16:5 17:6 18:8 19:9 20:4 22:2 
-0 -0 0 0 0 0 0 0 0 0 0 0 0 0 0 0.07845537848910743 0 1:3 2:3 3:2 4:3 5:2 6:4 7:3 8:3 9:7 10:6 11:1 12:2 13:1 14:3 15:4 16:4 17:4 18:4 19:9 20:8 21:2 
-0.09459985450467326 -0 0 0 0.00873050218686656 0.00810738233062382 0.004561396866454823 0.007933656030345161 0.1811262219122617 0.005400637254859062 0.02233782820417595 0.005894674176477588 0.006137760347553051 0.009286068878912195 0 0.03199641758357477 0.006762571514115585 1:2 2:3 3:2 4:2 5:2 6:3 7:2 8:2 9:6 10:6 11:2 13:2 14:5 15:1 16:4 17:3 18:7 19:7 20:3 
-0.01679710480631836 -0 0 0 0 0 0 0 0.03259533915690117 0 0.009559381602045679 0 0 0 0.02831106918887587 0 0 1:1 2:2 3:2 4:3 5:2 6:4 7:3 8:1 9:7 10:6 11:1 13:1 14:2 15:4 16:3 17:3 18:5 19:5 20:8 21:1 
-0.1980517378900472 -0.1294713194637807 0.1389652180243675 0.1606599825858089 0.1376192191341164 0.1407417380760353 0.1074437147799965 0.1437624572895958 0.1550445695273741 0.1017788593301021 0.1802605635250915 0.1207955709190442 0.1396492884828509 0.1276915060246981 0.1709482130179415 0.1626485881450919 0.1131197116262816 1:3 2:4 3:2 4:2 5:2 6:3 7:4 8:2 9:6 10:6 11:1 13:2 14:3 15:3 16:3 17:3 18:3 19:8 20:8 21:2 
-0.1729574503633832 -0.1601688661520923 0.1944700374403174 0.2163747401229863 0.1792420131802427 0.1808830057980486 0.1246012014371478 0.1839037894346102 0.08719400430307485 0.1330769512249479 0.2040676005874542 0.155100977468121 0.1624254968631946 0.160580887856597 0.1815809949901156 0.1595370277933827 0.1447194806036713 1:2 2:2 3:2 4:3 5:3 6:4 7:4 8:1 9:8 10:8 11:2 12:1 13:1 14:2 15:4 16:4 17:4 18:6 19:7 20:9 21:3 
-0.4402165802316229 -0.2792934923013982 0.3658300557754706 0.2889962751020214 0.2989860663212112 0.3033736736147984 0.231998173061581 0.3100760911842355 0.2683204018273507 0.2233444073022729 0.4458542269953059 0.2631056794637113 0.268619774197049 0.2843374225563989 0.5800378308387898 0.6909126733557818 0.2438092653227937 1:2 2:2 3:2 4:3 5:4 6:3 7:2 8:1 9:6 10:4 11:1 13:1 14:4 15:4 16:4 17:5 18:4 19:6 20:2 
-0 -0.008973080985527898 0.04406863537337218 0.06024854592824914 0.009218154790843392 0.008778703408893012 0.002054974579878376 0.01051737981392425 0 0.008324937382566247 0 0.007919069271177588 0.008113440502341567 0.003707834669715123 0 0 0.00725486782715703 1:2 2:1 3:2 4:3 5:3 6:4 7:4 8:2 9:6 10:7 11:2 13:2 14:5 15:4 16:4 17:4 18:7 19:9 20:1 
-0.1940804616262836 -0.2237313280566528 0.2413067169343897 0.2093916694131522 0.2568455512182176 0.2598082355497441 0.1755161461302336 0.2643962196865126 0.1488199923477642 0.1896765687498209 0.2634072658210608 0.2203349071844187 0.2292719775748055 0.2257327145946422 0.2584122112033473 0.1999115913886921 0.207419187037554 1:2 2:2 3:2 4:2 5:3 6:4 7:4 8:2 9:7 10:7 11:1 13:2 14:4 15:4 16:4 17:2 18:10 19:8 20:2 
-0.124768305633329 -0.1468804112398496 0.1727178315517768 0.1563570704541157 0.1669666512515151 0.1697935159413364 0.1145478900798299 0.1725756308277056 0.1248920680232017 0.1243164536149714 0.1717935226386863 0.1427559199263577 0.1478667695098675 0.1515270939654531 0.1750256891634924 0.1137479172217744 0.1358463497548245 1:2 2:2 3:1 4:1 5:1 6:3 7:3 8:2 9:8 10:8 11:1 13:1 14:2 15:4 16:4 17:2 18:3 19:6 20:7 21:3 
-0.3576209947547976 -0.2908803764123115 0.3584741447400709 0.3725531757589761 0.3092301162385772 0.3150905457026511 0.2129212478052359 0.320047146439136 0.2288765071038404 0.2289016480223282 0.4165806921361791 0.266258562805875 0.2776787667255559 0.2772426766249408 0.3138747010701677 0.3833633522619531 0.2540621583441497 1:2 2:2 3:2 4:3 5:4 6:4 7:3 8:2 9:8 10:6 11:4 12:2 13:2 14:5 15:4 16:3 17:6 18:9 19:8 20:3 22:2 
-0 -0 0 0 0.01302084300802647 0.01190553891184272 0.001090803089205164 0.01210935152608431 0 0.00896454058009047 0 0.009381077279091923 0.01060790345912691 0.005906015883947843 0 0 0.006888440875166597 1:2 2:2 4:4 5:4 6:3 7:3 8:2 9:6 10:7 11:1 13:2 14:4 15:4 16:5 17:5 18:5 19:7 20:2 
-0.07666061463896798 -0.1020295894709413 0.1859264943550408 0.1145229314628328 0.1427247148968855 0.1437611144526431 0.09878830873524613 0.1474416920156964 0.1276849419832225 0.1049772504640026 0.1739173311501609 0.1233054224353652 0.1267751829662085 0.1360469876987725 0.1372034473608878 0 0.1157776828103471 1:2 2:2 3:2 4:3 5:3 6:4 7:3 8:2 9:4 10:6 11:1 14:3 15:4 16:3 17:4 18:8 19:8 20:2 
-0.009832958764239411 -0 0 0.00803291131624655 0 0 0 0 0 0 0 0 0 0 0 0 0 1:2 2:2 3:2 4:3 5:4 6:4 7:3 8:2 9:7 10:4 11:1 12:2 13:1 14:4 15:4 16:3 17:6 18:9 19:7 20:2 
-0.2948226421921641 -0.1905174217883317 0.2145917009047504 0.2965027735021796 0.181020169520215 0.1848195903739892 0.1330326937863671 0.187039252134018 0.09772680036817133 0.1341833820587116 0.3044639846464478 0.1585038635446678 0.1649558000699312 0.1678633419208438 0.2167580096978515 0.3746672748981739 0.1493623762122539 1:2 2:3 3:4 4:3 5:2 6:3 7:3 8:2 9:4 10:7 11:1 13:1 14:4 15:4 16:3 17:5 18:7 19:7 20:3 
-0.02901467666976275 -0.02707445500541702 0.0272060487864846 0.06736423860139468 0.03666970850291433 0.03737126190991124 0.02054887179964939 0.0381187129979421 0 0.02804081413870985 0.06001546884674407 0.02985448723996482 0.02849490286917191 0.03421558591689045 0.002539094487099185 0 0.02942427795506615 1:2 2:3 3:1 4:3 5:4 6:4 7:3 8:3 9:6 10:6 11:1 14:3 15:3 16:4 17:5 18:3 19:9 20:7 21:2 
-0.2314282216149579 -0.2572999863528402 0.2966770519129245 0.2044423827888572 0.3198567821234569 0.3237940078925355 0.2200994471951203 0.3300428692451795 0.2177175697021848 0.2373554086738466 0.2773460884870391 0.2752923048498165 0.2858774315853915 0.2893056400794289 0.3436035755045205 0.09217655372197586 0.2581762085117544 1:2 2:2 3:2 4:3 5:4 6:3 7:4 8:3 9:9 10:8 11:1 12:2 13:3 14:4 15:4 16:3 17:6 18:9 19:9 20:3 22:2 
-0 -0 0 0 0 0 0 0 0.01605655988849768 0 0.0008589538014855219 0 0 0 0 0 0 1:2 2:2 3:2 4:3 5:4 6:2 7:1 8:2 9:7 10:7 11:2 12:1 13:2 14:3 15:2 16:2 17:5 18:8 19:8 20:3 22:2 
-0 -0 0 0 0.01182567160915516 0.01103611947771371 0.006902902587074135 0.01130418081003258 0 0.007900014579938155 0 0.009962772577559471 0.009591386735152649 0.006904302775119549 0 0 0.006665427671914675 1:2 2:2 3:4 4:3 5:3 6:4 7:2 8:3 9:9 10:7 11:1 12:2 13:3 14:4 15:3 16:4 17:6 18:7 19:8 20:4 21:1 22:2 
-0.03999003761033948 -0.05849424869409349 0.0562838515503948 0.05825305197015302 0.06979333296154488 0.07088975168888231 0.04695101985955526 0.07346417352620035 0.006935319613167589 0.05224556342178623 0.089234797581616 0.05955794000719097 0.06310542920058405 0.06054517253772995 0.06479109554519129 0 0.05589973168132827 2:2 3:2 4:3 5:2 6:4 7:2 8:3 9:7 10:6 14:3 15:3 16:4 17:4 18:3 19:6 20:7 21:1 
-0.004441197239616191 -0.04208254036631573 0.04234766748305704 0.01748151390483609 0.02046374851991245 0.02005901525141714 0.02124348365561311 0.02158018782808443 0.03621546672116394 0.01689532830660174 0.04614855617072576 0.0167386504488959 0.01757099493364597 0.0330238395760468 0.5827278529990703 0.0195376187203902 0.01560030161982134 1:2 2:2 3:2 4:3 5:1 6:4 7:3 8:2 9:5 10:6 11:1 13:4 14:4 15:3 16:5 17:7 18:6 19:2 
-0 -0 0 0 0 0 0 0.0106321784209195 0 0 0.2169776529183353 0 0 0 0.06541908767277406 0.08250290977287277 0 1:4 2:4 3:2 4:3 5:3 6:4 7:3 8:2 9:8 10:5 11:1 13:1 14:2 15:4 16:4 17:4 18:3 19:5 20:5 21:8 22:3 
-0.910623320993843 -0.8528127191863797 0.984867105164697 0.9525113353759659 0.9734358414812244 0.9913507378812123 0.6845652935238197 0.9991606684220008 0.7145479794050622 0.7213617089142188 0.9938322182977615 0.8571645578765306 0.8961949062053659 0.8779892481026094 0.9923853142097101 0.9875793477699139 0.7899620489539038 1:4 2:4 3:2 4:3 5:3 6:4 7:3 8:2 9:8 10:5 11:1 13:1 14:2 15:4 16:4 17:4 18:3 19:5 20:5 21:8 22:3 
-0.3309408055137061 -0.3157078515074441 0.350558124255312 0.3455053012848187 0.3739703213891264 0.3786964576913652 0.2546980113602223 0.3859325535739276 0.2693545063872088 0.2765539263826846 0.4083459814020299 0.3208244947059816 0.3357677502241146 0.3307795399190585 0.3823628867488118 0.3074133993903424 0.3024276542203718 1:2 2:1 3:2 4:2 5:2 6:4 7:3 8:2 9:8 10:6 11:1 13:4 14:4 15:3 16:2 17:8 18:8 19:2 21:2 
-0.09235126544359343 -0.08370151100689183 0.1325396952448373 0.08105039596425238 0.1069978766891362 0.1078415625870221 0.06140307820540673 0.1094861102160689 0.0633345010999479 0.07851493216344037 0.08133931749952872 0.08737280853681778 0.09506552144294922 0.08367933150658878 0.04622598574161053 0.02983355323389159 0.08613811982070443 1:1 2:3 3:2 4:3 5:4 6:4 7:3 8:2 9:7 10:6 11:2 13:4 14:5 15:4 16:5 17:9 18:8 19:2 
-0.7371337694510243 -0.7098598091788135 0.8250154075105859 0.7886654516381575 0.8121488059838059 0.8243021052228614 0.5591652390872778 0.839082506834487 0.5751464468635018 0.602229602020565 0.9815454523253471 0.6995556290617492 0.729099014066246 0.7309519082606716 0.8464575180846968 0.7800294810153081 0.6588673611854291 1:2 2:3 3:2 4:3 5:2 6:3 7:3 8:4 9:9 10:9 11:4 12:2 14:3 15:4 16:3 17:4 18:5 19:7 20:8 21:3 22:1 23:3 24:3 25:2 
-0.3198913636644458 -0.3141130003267838 0.4655568037529022 0.3572826443398494 0.3507430782656794 0.356207995637185 0.2527253500091572 0.3626784058023584 0.2828516072248126 0.2612581226076578 0.4440761850068629 0.3063724872418936 0.3150679757350963 0.3243119620933853 0.7874126421258291 0.4847599612685602 0.2846277750496729 1:2 2:2 3:2 4:3 5:4 6:4 7:3 8:2 9:4 10:5 11:1 13:4 14:4 15:4 16:3 17:8 18:7 19:2 
-0 -0 0 0 0 0 0 0 0 0 0 0 0 0 0.06926957504272498 0 0 1:2 2:1 3:2 4:2 5:2 6:3 7:2 8:2 9:6 10:6 11:1 13:3 14:3 15:4 16:4 17:7 18:6 19:2 
-0.3954198092276383 -0.3803478661227829 0.4480088690744099 0.4287350728728883 0.4539059030045306 0.4607815863816189 0.310452548076645 0.4691650859842066 0.3202349665537332 0.3361455788811701 0.5364107662292377 0.3897189852839415 0.4072837445529606 0.401588663838046 0.4165738659461112 0.4306541783864213 0.3681465336393334 1:2 2:2 3:1 4:3 5:4 6:4 7:3 8:2 9:7 10:7 11:3 12:1 13:3 14:4 15:4 16:6 17:9 18:7 19:3 21:3 
-0 -0 0 0 0 0 0 0 0 0 0 0 0 0 0.01506606023885755 0 0 1:2 2:2 3:2 4:3 5:4 6:3 7:3 8:2 9:6 10:5 11:1 13:4 14:4 15:3 16:5 17:7 18:8 19:2 
-0.1523865105172992 -0.1344537850571519 0.1807843396587807 0.1823513990903517 0.1650855834556844 0.1673118397808608 0.1213114328764393 0.1709646485702829 0.09820190231698342 0.1202064711113558 0.1858860505405052 0.1452358388251046 0.1488612401351909 0.1458441916407414 0.2770130156030037 0.1095647264440245 0.1336878504420502 1:2 2:3 3:2 4:3 5:2 6:5 7:4 8:2 9:6 10:6 11:1 13:4 14:4 15:4 16:6 17:8 18:8 19:2 
-0.3413644049120952 -0.3882415849444121 0.4344072598195928 0.4121805136247488 0.3859587539577949 0.3924156386012025 0.2731848444620319 0.3987664318576292 0.2840013997927474 0.288252344211158 0.472193467311543 0.3372240062812962 0.3468383223609241 0.3770697438256937 0.5256705880651723 0.4806301868444943 0.3145222994989155 1:2 2:3 3:2 4:3 5:4 6:4 7:3 8:2 9:7 10:4 11:2 12:2 13:3 14:3 15:4 16:6 17:9 18:8 19:3 21:2 
-0.4191240098900485 -0.4087605158046669 0.4443223399438925 0.4487833057053946 0.4754372046456314 0.4829537212191468 0.3222505613469278 0.491080456536203 0.3304373236369946 0.3524038448694447 0.5088820313670347 0.4087461498796895 0.4262642498161853 0.4296362625213819 0.2465856615655096 0.4003139282768496 0.3867906469720832 1:3 2:2 3:2 4:3 6:4 7:2 8:3 9:6 10:6 13:3 14:4 15:4 16:3 17:8 18:7 19:2 
-0.01486820358508672 -0.03688504487203444 0.04934369060934549 0 0.07556349483112451 0.07659971589258172 0.04865786074970777 0.07795993280284302 0.07507119866960424 0.05569457953824686 0.04734676023457598 0.06345794135538306 0.06726153000752491 0.07304496030550525 0.07028282337680396 0 0.05930931355771737 1:2 2:2 3:2 4:3 5:4 6:3 7:2 8:1 9:6 10:6 11:2 12:1 13:2 14:1 15:3 16:3 17:6 18:9 19:8 20:2 
-0.04167153766860201 -0.008266639396551631 0 0.007747391232967872 0.03233964042287125 0.03323052819265814 0.02428832857755086 0.03326386568420538 0.007588731008623879 0.0224855295715147 0.04291294166134339 0.02703715158258821 0.03027775794287478 0.02600074451066865 0 0 0.02544920040277294 1:2 2:2 3:1 4:3 5:3 6:3 7:4 8:4 9:6 10:6 11:1 13:2 14:4 15:4 16:3 17:5 18:6 19:9 20:2 
-0.1063579170511691 -0.09397259487240339 0.09862318825393761 0.09760910634521762 0.1122670126682296 0.1147987261488099 0.0804245427201872 0.1167727981307155 0.08065323851104257 0.08452633512273418 0.1047595360906452 0.09702490876768111 0.1017916086390752 0.1108716113471734 0.09449277150445581 0 0.09132457965890038 1:2 2:3 3:2 4:2 5:1 6:4 7:3 8:2 9:7 10:4 11:1 13:1 14:3 15:3 16:3 17:3 18:8 19:8 20:2 
-0.1608092161172779 -0.1867237097819101 0.2447570877386828 0.1908025440056419 0.2274346273178166 0.2311877789217943 0.1534263495856881 0.2348712338472896 0.1536188621245665 0.1681324601318606 0.2381349607863689 0.1954760685424206 0.2037383416942693 0.2017685777688601 0.2344153257769216 0.1846032950703224 0.184341610961066 2:1 3:2 4:2 5:4 6:4 7:3 8:2 9:6 10:7 11:1 14:2 15:4 16:4 17:4 18:5 19:6 20:7 
-0.1873621019165694 -0.1070080537145437 0.1754326141319537 0.1761825787807154 0.09634969980059738 0.09738419983654562 0.07253795087309914 0.09812131534773601 0.1263395779641787 0.07084070030038467 0.1944753971506237 0.08601908703811688 0.08674551906659023 0.08717871978821026 0.1442972781400382 0.4283156864868624 0.08050195905946596 1:2 2:2 3:2 4:3 5:4 6:4 7:3 8:2 9:6 10:4 11:1 14:1 15:4 16:4 17:3 18:5 19:8 20:6 21:2 
-0.6323072421557786 -0.6268903975239074 0.7271730983255521 0.6886836266898684 0.724326164084084 0.7336973910945651 0.4959559044556954 0.747413397766736 0.5402412969665129 0.5366586986700091 0.8064540996378704 0.6221729381337014 0.6493827155726354 0.6478740255786026 0.8514291475930253 0.6546976007234523 0.586948068612645 3:1 4:2 5:3 6:4 7:3 8:3 9:7 10:5 13:3 14:4 15:3 16:4 17:2 18:8 19:4 
-0 -0.06495876965411285 0.01580593083687207 0.1422151622769024 0 0 0 0 0 0 0.006751916388921652 0 0 0 0 0.1770727124821556 0 1:2 2:2 3:2 4:3 5:3 6:4 7:2 8:2 9:5 10:5 11:2 12:1 14:2 15:4 16:3 17:6 18:7 19:8 20:3 
-0 -0 -0 0.1207937250845483 0 0 0 0 0 0 0 0 0 0 0 0 0 1:2 2:7 3:4 4:2 5:5 6:5 7:4 8:3 9:2 10:4 11:5 12:3 13:1 14:8 15:9 16:6 17:6 18:6 19:7 20:2 21:1 
-0.1183166604483683 -0.2059488463674665 -0.1125327567993312 0.03739361415919666 0.142582988665296 0.155995023314017 0.07206092581856534 0.1472992091121671 0.1052550873354969 0.1587777741588621 0.1414171883539034 0.1123209008236746 0.1245955676263182 0.1265805117272162 0.15472437014933 0.09532629922951871 0.1074215355704862 1:2 2:3 3:3 4:2 5:4 6:4 7:3 8:2 9:2 10:4 11:5 12:3 13:8 14:8 15:4 16:6 17:6 18:5 
-0.1315865444713803 -0.1487844333330502 -0.1612786946769117 0.1301183712058498 0.1701760882457301 0.1812971175022765 0.1107188694959234 0.1734564219402971 0.1141607501179539 0.1156783918524875 0.2099749953306563 0.1437552545279316 0.1483500393354338 0.1479867268727633 0.1768643957913849 0.1824221658835194 0.1268513090649494 1:2 2:5 3:3 4:1 5:5 6:5 7:4 8:3 9:5 10:4 11:6 12:3 13:7 14:8 15:6 16:6 17:6 18:8 19:2 21:3 
-0 -0 -0 0 0.02649124025504099 0.007793360500498628 0 0.02641809514260001 0.009706000164650936 0 0 0.007264545928749593 0.02016418883709226 0.01815528320653068 0 0 0.009211144346705053 1:3 2:3 3:3 4:1 5:5 6:6 7:4 8:2 9:2 10:3 11:5 12:3 13:8 14:6 15:6 16:6 17:7 18:7 
-0 -0.2939484194466991 -0 0.7462094832940769 0 0 0 0 0 0 0 0 0 0 0 0 0 1:3 2:5 3:5 4:4 5:4 6:5 7:3 8:2 9:3 10:3 11:5 12:3 14:7 15:9 16:7 17:7 18:7 19:7 20:1 
-0.03798813195363987 -0.2059956448624924 -0.1302604018389636 0.0561398549397014 0.1887546256984945 0.1927757040330223 0.2036770040060802 0.2005700021152987 0.1226968413770835 0.144622026903641 0.1766655731737017 0.1885135081246089 0.166112779312828 0.1751901587937802 0.1797490854424401 0.005539179617132461 0.1458101861667154 1:2 2:4 3:2 4:2 5:4 6:7 7:3 8:2 9:1 10:1 11:5 12:3 15:6 16:6 17:6 18:6 19:5 20:6 21:1 
-0.02678176465888382 -0 -0.01456112053937516 0.03987869031834338 0.02802877301255243 0.02248106356107408 0.01319179482220506 0.02937608945890355 0.01934473240963263 0.007956877367592789 0.04300764411103943 0.02365939490054621 0.02557657048325498 0.02460437057796961 0 0.02491437667522168 0.01777966841282254 1:3 2:4 3:2 4:2 5:5 6:6 7:4 8:3 9:2 10:4 11:5 12:4 13:8 14:10 15:6 16:6 17:7 18:6 20:1 
-0.0159702672594844 -0 -0 0 0 0 0 0 0 0 0 0 0 0 0 0 0.06434971746564147 1:3 2:5 3:2 4:2 5:5 6:6 7:2 8:2 9:1 10:2 11:5 12:3 13:2 15:6 16:6 17:6 18:6 19:6 20:6 
-0.9958998452703902 -0 -0 0 0 0 0 0 0 0 0 0 0 0 0 0.003435292086556513 0 1:3 2:3 3:4 4:3 5:5 6:3 7:3 8:2 9:2 10:3 11:5 12:3 15:8 16:6 17:5 18:5 19:6 20:7 21:2 
-0 -0 -0 0.2553786779087396 0 0 0 0 0 0 0 0 0 0 0 0 0 1:3 2:4 3:3 4:3 5:5 6:6 7:4 8:1 9:3 10:5 11:5 12:3 14:1 15:8 16:8 17:5 18:7 19:8 20:7 21:1 
-0 -0.05596185219632858 -0 0 0 0 0 0 0 0 0 0 0 0 0 0 0 1:4 2:4 3:3 4:2 5:4 6:6 7:3 8:3 9:3 10:2 11:5 12:4 13:7 14:8 15:7 16:5 17:8 18:7 19:1 
-0 -0 -0 0 0.003064964519765474 0 0 0.002822892432169544 0 0 0 0 0 0 0 0 0 1:3 2:3 3:3 4:2 5:5 6:6 7:3 8:3 9:3 10:4 11:4 12:3 14:9 15:10 16:6 17:6 18:5 19:6 
-0.602538216125436 -0.2665577418807057 -0.2155737106605476 0.5477056330183931 0.2249874469629142 0.243741433714503 0.129180216797559 0.2315401355570684 0.1576978285089412 0.1530856376770182 0.2930664749136645 0.1745172136018536 0.2023108135902429 0.1917402862095733 0.2361024158470351 0.5508940692315474 0.2586001061808185 1:4 2:4 3:4 4:2 5:5 6:3 7:4 8:2 9:3 10:4 11:5 12:3 13:1 14:1 15:8 16:7 17:5 18:4 19:8 20:8 21:1 
-0 -0 -0.006591588179743211 0.8228606607670869 0 0 0 0 0 0 0 0 0 0 0 0 0 1:2 2:3 3:4 4:3 5:3 6:6 7:4 8:2 9:2 10:5 11:3 12:3 15:7 16:7 17:5 18:6 19:7 20:7 21:1 
-0 -0 -0 0.2707657597199702 0 0 0 0 0 0 0 0 0 0 0 0 0 1:2 2:5 3:3 4:2 5:4 6:6 7:4 8:3 9:3 10:3 11:5 12:3 13:1 14:8 15:8 16:4 17:6 18:8 19:7 20:1 
-0.0469395986149909 -0.01119340223878587 -0.02578990531985765 0.07931408090503542 0.04174345536654184 0.04336660518881652 0.07940110743247189 0.04387962458123743 0.02608903127354338 0.05256715391643858 0.05441032564705522 0.06342974760718846 0.0382016713184572 0.04000948510407144 0.05288637946799608 0.04333674949139309 0.03318787473270856 1:3 2:4 3:4 4:3 5:5 6:6 7:3 8:1 9:1 10:2 11:5 12:3 13:7 14:8 15:7 16:6 17:5 18:6 19:1 
-0.1309741706169282 -0.008178865968802993 -0 0.817557913966378 0 0 0 0 0 0 0 0 0 0 0 0 0 1:3 2:4 3:4 4:3 5:3 6:5 7:3 8:2 9:2 10:4 11:5 12:2 13:1 14:8 15:6 16:6 17:5 18:5 19:8 20:1 
-0.1586001000140807 -0.1244795179330572 -0 0.3559538609406998 0 0 0 0 0 0 0 0 0 0 0 0.1586892231902354 0 1:3 2:4 3:4 4:3 5:5 6:4 7:4 8:2 9:3 10:2 11:4 12:3 14:7 15:6 16:5 17:6 18:7 19:8 20:1 21:1 
-0 -0 -0 0.5753130996521905 0 0 0 0 0 0 0 0 0 0 0 0 0 1:3 2:5 3:4 4:2 5:4 6:4 7:4 8:2 9:2 10:3 11:5 12:2 15:7 16:7 17:4 18:6 19:7 20:8 21:1 
-0.07987469952287403 -0 -0.06583857199319586 0.02153456401517956 0.08182195704586642 0.09181542306860228 0.06069497408084325 0.08817748322196815 0.05957922653460686 0.06137143385003407 0.08796465606916576 0.07488213297076213 0.07462389451450173 0.07636818094772421 0.1054795679013628 0.09179100147035776 0.05982163158576756 1:3 2:5 3:4 4:1 5:5 6:6 7:1 8:2 9:3 10:4 11:6 12:4 13:7 14:10 15:6 16:6 17:5 18:6 19:2 21:2 
-0.08709739802533475 -0.06214752106211194 -0.09557028384156144 0.06691907915717986 0.1060658946395796 0.1091370553831025 0.06327500907805041 0.1129916589166214 0.07635552916723319 0.08264474462529413 0.1027901050405951 0.0874116355933284 0.09552201766987452 0.09713462061227063 0.1152375036761606 0.07993942000227869 0.08015843376278597 1:3 2:4 3:4 4:2 5:6 6:6 7:4 8:3 9:4 10:4 11:5 12:3 13:8 14:10 15:6 16:6 17:8 18:9 19:1 
-0 -0.1598173813595515 -0.05287167400166719 0.6279701211411678 0.07753997515386986 0.1022448560449616 0.03441147231631769 0.07696414120541986 0.05046164932800847 0.05034569814492598 0.1441016082988396 0.07229912516825895 0.07212903733968544 0.06679728245111248 0.06968108215323461 0.1305101045582357 0.1212524179045196 1:3 2:5 3:4 4:2 5:5 6:4 7:4 8:2 9:1 10:5 11:5 12:4 14:7 15:8 16:5 17:5 18:8 19:7 20:2 22:2 
-0 -0 -0 1 0 0 0 0 0 0 0 0 0 0 0 0 0 1:2 2:4 3:4 4:3 5:4 6:5 7:3 8:3 9:2 10:3 11:5 12:3 14:1 15:8 16:8 17:6 18:5 19:6 20:5 21:2 
-0.4301181437732735 -0.4423228676552448 -0.5006388456271043 0.4837366334002584 0.4671946587634231 0.4989576483061782 0.4099601320372748 0.4873032610225249 0.3416903059977862 0.335823067508631 0.604469099557879 0.4252806305722056 0.4197647911235051 0.4292237375331015 0.7462027055816337 0.5350507418463807 0.3739876005277792 1:3 2:4 3:4 4:1 5:3 6:5 7:4 8:2 9:3 10:3 11:3 12:3 13:8 14:5 15:5 16:5 17:7 18:5 19:2 20:1 
-0.01876675645367672 -0 -0.2296996544583489 0 0.2297622116247243 0.2291019236551804 0.1360612271662213 0.2403514353323808 0.1500468380532765 0.1512525137036098 0.2786871515883276 0.1956834158849864 0.1992985691600025 0.1967850941052015 0.212192723941428 0.1521883618794068 0.133594028042213 1:1 2:4 3:4 4:2 5:5 6:6 7:3 8:1 9:4 10:4 11:4 12:3 15:7 16:9 17:6 18:7 19:6 20:5 21:1 
-0.1189569667200994 -0 -0 0 0 0 0 0 0 0 0 0 0 0 0 0 0 1:3 2:5 3:5 4:2 5:5 6:6 7:2 8:2 9:2 10:3 11:4 12:2 13:1 14:6 15:8 16:5 17:4 18:7 19:8 20:2 
-0.4638134370355659 -0.4607943196482054 -0.4820475225993059 0.4514484332042124 0.5504259273433516 0.5565181748075372 0.3455549963785282 0.5702732181336144 0.3771674224784113 0.3884312219844252 0.6130350424194629 0.4564642983645376 0.4855154539994818 0.4855483428788802 0.5434665531509153 0.4778006434153356 0.425387451806901 1:1 2:3 3:5 4:2 5:5 6:5 7:4 8:3 9:3 10:4 11:4 12:3 13:8 14:9 15:6 16:2 17:9 18:7 19:1 
-0 -0 -0 1 0 0 0 0 0 0 0 0 0 0 0 0 0 1:3 2:4 3:4 4:4 5:6 6:6 7:3 8:3 9:2 10:3 11:5 12:3 13:1 14:7 15:8 16:6 17:6 18:7 19:9 20:2 
-0 -0 -0.0294469169355468 0 0.0779828874025625 0.07825932915822902 0.2023070550984354 0.08145075396985124 0.04200213111303912 0.04821015192751051 0.06185766831602949 0.1423345389682727 0.07271526415516087 0.0697351249715337 0.07381752399089088 0.01029463307553464 0.05812476689571054 1:2 2:5 3:4 4:2 5:5 6:5 7:4 8:2 9:1 10:1 11:3 12:3 14:8 15:7 16:6 17:5 18:5 19:5 20:1 
-0 -0 -0 0.1684021333873661 0 0 0 0 0 0 0 0 0 0 0 0 0 1:2 2:3 3:2 4:2 5:5 6:5 7:4 8:2 9:2 10:4 11:5 12:3 13:2 14:8 15:8 16:4 17:6 18:6 19:5 
-0.5820338974637429 -0 -0 1 0 0 0 0 0 0 0 0 0 0 0 0.06557527271219604 0 1:2 2:4 3:4 4:3 5:4 6:6 7:2 8:2 9:3 10:3 11:4 12:2 13:2 14:6 15:7 16:6 17:5 18:5 19:7 20:1 
-1 -0.229439363932761 -0.001805897466956911 1 0 0.02170546075996883 0.04499573928389264 0 0 0 0.1155077053600594 0.004038634761563754 0.005411424836959153 0 0.03457225275022332 0.1356136929086968 0.06601120778393384 1:3 2:4 3:4 4:3 5:3 6:5 7:4 8:2 9:2 10:4 11:5 12:3 14:8 15:7 16:6 17:5 18:5 19:8 20:3 
-0 -0 -0 0.160014770089697 0 0 0 0 0 0 0 0 0 0 0 0 0 1:2 2:4 3:4 4:1 5:5 6:5 7:3 8:3 9:3 10:4 11:5 12:3 13:1 14:6 15:7 16:6 17:6 18:7 19:7 20:2 
-0 -0 -0 1 0 0 0 0 0 0 0 0 0 0 0 0 0 1:3 2:4 3:4 4:2 5:3 6:6 7:2 8:3 9:3 10:5 11:5 12:3 14:6 15:8 16:6 17:6 18:7 19:8 20:2 
-0 -0.2812323669655448 -0 0.1167278885991168 0 0 0 0 0 0 0 0 0 0 0 0 0 1:3 2:5 3:4 4:2 5:3 6:5 7:3 8:2 9:2 10:3 11:5 12:3 13:7 14:7 15:6 16:6 17:4 18:8 19:2 
-0 -0 -0 0.2215199435073112 0 0 0 0 0 0 0 0 0 0 0 0 0 1:3 2:5 3:4 4:2 5:5 6:5 7:4 8:2 9:3 10:3 11:4 12:2 15:6 16:7 17:6 18:6 19:8 20:8 21:1 
-0.5766306244728976 -0.590195937335493 -0.6087637620180457 0.5414591030949427 0.6943589495620366 0.7053227979780028 0.4541163127754188 0.7214360774200398 0.4800250133719895 0.4942824076525289 0.7876379085051547 0.590691555858033 0.6150008232884197 0.6146322790250893 0.7384773936401881 0.630328670044449 0.5360366905720146 1:4 2:5 3:6 4:3 5:6 6:7 7:5 8:2 9:2 10:3 11:3 12:3 15:7 16:7 17:5 18:7 19:7 20:6 21:1 24:3 25:6 
-0 -0 -0 0.02800848923193849 0 0 0 0 0 0 0 0 0 0 0 0 0 1:2 2:5 3:4 4:2 5:4 6:7 7:4 8:2 9:4 10:4 11:5 12:5 13:8 14:9 15:6 16:6 17:8 18:7 19:3 20:1 
-0 -0 -0.09383287425076953 0 0.1292047524108713 0.1336366386054141 0.07239751021506795 0.1348912293271104 0.08504937886102026 0.08662508404591135 0.1572760327289945 0.125063213483962 0.1126959125204765 0.1103459353691232 0.1273994439439107 0.1538763570721142 0.08259078673972753 1:3 2:4 3:5 4:2 5:6 6:5 7:3 8:1 9:1 10:2 11:5 12:2 13:1 15:8 16:5 17:6 18:6 19:7 20:5 21:1 
-0.01966235790407353 -0.0158367904960085 -0.07770183475310462 0.06990467548640877 0.02485329107708 0.03039277737611581 0.02265632634946728 0.02822207467973159 0.01361088415453331 0.02326455681373551 0.03288029620647038 0.0221122838479676 0.02183715481162782 0.0238120341687157 0.1409180546618183 0.03186408366075883 0.01904807845161617 1:2 2:3 3:3 4:1 5:5 6:5 7:4 8:2 9:2 10:4 11:3 12:3 13:6 14:8 15:6 16:5 17:7 18:5 
-0.1580258199875718 -0.09628392738282104 -0 1 0.01108596856664399 0.003843970708544431 0.08219515331289261 0 0 0 0.0823052089118511 0.05903729808728485 0.04881849675947855 0 0.01198608851589542 0.04238690769513815 0.03305870618707137 1:4 2:5 3:4 4:3 5:4 6:6 7:5 8:2 9:3 10:3 11:5 12:3 13:1 14:1 15:8 16:8 17:7 18:6 19:6 20:8 21:2 
-0.1299680975929382 -0.1129842092458556 -0.2713723541835548 0 0.3225591711245368 0.3195877602428733 0.1924270126417645 0.3309719608690818 0.2187367635737578 0.2261960238266648 0.3679810418062358 0.2693202339749569 0.2879173996321808 0.2789845641095701 0.3121546595399806 0.1998933481769082 0.2109865446953171 1:3 2:5 3:3 4:3 5:5 6:6 7:4 8:2 9:3 10:4 11:6 12:2 14:8 15:9 16:4 17:7 18:6 19:9 20:2 21:1 
-0 -0 -0.03560582170298414 0 0.05287723635269169 0.05091921702737329 0 0.05440723841739327 0.02681133390629715 0.03675988158348805 0.04278985003141386 0.01692944641370459 0.04209172275512383 0.04297722094362322 0 0 0.01983286705051565 1:1 2:4 3:5 4:2 5:5 6:4 7:3 8:2 9:2 10:4 11:4 12:3 14:9 15:6 16:5 17:5 18:6 19:7 20:1 
-0.5892510441782073 -0.138458959101037 -0 1 0 0 0 0 0 0 0 0 0 0 0.01154561112760721 0.1991265315120359 0.04889810981748646 1:3 2:5 3:3 4:1 5:5 6:4 7:4 8:4 9:4 10:3 11:5 12:3 13:2 14:8 15:8 16:5 17:6 18:6 19:7 20:2 
-0.2217797807324113 -0.3054454545448705 -0.383273202828764 0 0.4433334909322495 0.449553114306276 0.2613739018388839 0.4636580393975204 0.3110005649355896 0.3188662665320539 0.4587255614042872 0.3582368713159632 0.3832066024986358 0.3961055870845259 0.4652527400438144 0.2716162707032903 0.3054306474000941 1:3 2:6 3:3 4:2 5:6 6:6 7:3 8:2 9:2 10:5 11:5 12:3 15:9 16:9 17:7 18:6 19:6 20:9 
-0.1179736559892558 -0 -0.001931026828008764 0.03188218138481499 0.001793063445878601 0.009230700169100893 0.01066412220298129 0.002077430959952116 0 0 0.01984212226938136 0.001428782304804982 0 0.00910844948248354 0 0.0009867461952082044 0.09159246575962235 1:3 2:5 3:1 4:2 5:5 6:4 7:3 8:2 9:3 10:3 11:5 12:3 15:8 16:6 17:6 18:6 19:6 20:7 
-0 -0.5668834315259106 -0.03097188125210427 0 0.001876151195570475 0.02074023042356429 0 0 0.02129348360074994 0.04096656646020785 0.004051538188391077 0 0 0.02859637133448598 0.1438055467109381 0.2575635348983383 0.08953117808163953 1:3 2:3 3:3 4:2 5:4 6:4 7:2 8:1 9:3 10:3 11:5 12:3 15:7 16:8 17:5 18:6 19:6 20:4 
-0.08139199660185654 -0.2542728168760584 -0.0553951968011934 0.1290748818728079 0.08478303579619621 0.1265096209367629 0.04474915203545676 0.08506043654677327 0.05838743618979322 0.07700288121292602 0.09448122983152711 0.0634881056475253 0.07294866636299735 0.07008180805476136 0.07427242616119537 0.08527982449517681 0.1081810298259583 1:3 2:4 3:4 4:2 5:4 6:6 7:2 8:1 9:2 10:4 11:7 12:5 13:7 14:8 15:6 16:6 17:6 18:7 19:2 21:2 
-0 -0.02800493271840456 -0 0 0 0 0 0 0 0 0 0 0 0 0 0 0 1:3 2:3 3:2 4:2 5:4 6:5 7:3 8:2 9:2 10:2 11:4 12:4 14:8 15:6 16:6 17:5 18:5 19:6 
-0 -0 -0 0.2045289447614673 0 0 0 0 0 0 0 0 0 0 0 0 0 1:3 2:4 3:4 4:3 5:5 6:6 7:3 8:2 9:2 10:3 11:5 12:3 14:1 15:7 16:9 17:6 18:5 19:5 20:9 21:1 
-0 -0 -0.1303065803739124 0 0.1357606237374517 0.1309072096588123 0.06591869304527286 0.1383615581066671 0.09294724898810636 0.09280714557721777 0.1439213334497655 0.0966351279601621 0.1174975104909362 0.1174629996621696 0.07540313185676545 0.02126634635475134 0.08668229234337771 1:2 2:4 3:4 4:1 5:4 6:6 7:4 8:2 9:1 10:3 11:5 12:2 15:7 16:4 17:6 18:6 19:7 20:7 21:1 
-0 -0.03416440745818976 -0 0 0 0 0 0 0 0 0 0 0 0 0 0.00115288060741699 0 1:3 2:5 3:4 4:2 5:5 6:5 7:3 8:3 9:3 10:4 11:4 12:4 13:7 14:8 15:4 16:7 17:8 18:8 19:2 20:1 
